{"learner":{"attributes":{"best_iteration":"99","best_ntree_limit":"100","scikit_learn":"{\"n_estimators\": 100, \"objective\": \"reg:squarederror\", \"max_depth\": 10, \"max_leaves\": null, \"max_bin\": null, \"grow_policy\": null, \"learning_rate\": 0.1, \"verbosity\": null, \"booster\": null, \"tree_method\": null, \"gamma\": null, \"min_child_weight\": null, \"max_delta_step\": null, \"subsample\": null, \"sampling_method\": null, \"colsample_bytree\": null, \"colsample_bylevel\": null, \"colsample_bynode\": null, \"reg_alpha\": null, \"reg_lambda\": null, \"scale_pos_weight\": null, \"base_score\": null, \"missing\": NaN, \"num_parallel_tree\": null, \"random_state\": null, \"n_jobs\": null, \"monotone_constraints\": null, \"interaction_constraints\": null, \"importance_type\": null, \"gpu_id\": null, \"validate_parameters\": null, \"predictor\": null, \"enable_categorical\": false, \"feature_types\": null, \"max_cat_to_onehot\": null, \"max_cat_threshold\": null, \"eval_metric\": null, \"early_stopping_rounds\": null, \"callbacks\": null, \"_estimator_type\": \"regressor\"}"},"feature_names":[],"feature_types":[],"gradient_booster":{"model":{"gbtree_model_param":{"num_parallel_tree":"1","num_trees":"100","size_leaf_vector":"0"},"tree_info":[0,0,0,0,0,0,0,0,0,0,0,0,0,0,0,0,0,0,0,0,0,0,0,0,0,0,0,0,0,0,0,0,0,0,0,0,0,0,0,0,0,0,0,0,0,0,0,0,0,0,0,0,0,0,0,0,0,0,0,0,0,0,0,0,0,0,0,0,0,0,0,0,0,0,0,0,0,0,0,0,0,0,0,0,0,0,0,0,0,0,0,0,0,0,0,0,0,0,0,0],"trees":[{"base_weights":[1.6387981E1,2.3621094E1,8.116729E0,2.7941536E1,1.9844194E1,1.1591818E1,3.9044783E0,3.0545166E1,2.600926E1,2.1705498E1,1.7647844E1,1.3553417E1,9.507314E0,6.0637994E0,2.2258282E0,1.4350426E1,1.2154178E1,1.0520513E1,8.436879E0,7.03235E0,5.6348405E0,3.3248532E0,1.0525633E0,5.161E-1,3.3460815E0,1.0008895E0,1.6256286E0,2.02755E-1,1.0070275E0,2.2245E0,9.4118E-1,1.0167632E0,3.6305666E-1],"categories":[],"categories_nodes":[],"categories_segments":[],"categories_sizes":[],"default_left":[1,1,1,1,1,1,1,0,0,0,0,1,1,1,1,0,0,0,0,0,0,1,1,0,0,1,1,0,1,0,0,0,0],"id":0,"left_children":[1,3,5,7,9,11,13,-1,-1,-1,-1,15,17,19,21,-1,-1,-1,-1,-1,-1,23,25,-1,-1,27,29,-1,31,-1,-1,-1,-1],"loss_changes":[1.0528306E5,1.4784375E4,1.2016406E4,1.399E3,1.6814219E3,1.7152656E3,1.3421572E3,0E0,0E0,0E0,0E0,8.208203E1,1.5201172E2,2.8095215E1,2.6986316E2,0E0,0E0,0E0,0E0,0E0,0E0,4.772339E0,1.4526062E0,0E0,0E0,2.7591705E-1,7.756233E-1,0E0,2.3899841E-1,0E0,0E0,0E0,0E0],"parents":[2147483647,0,0,1,1,2,2,3,3,4,4,5,5,6,6,11,11,12,12,13,13,14,14,21,21,22,22,25,25,26,26,28,28],"right_children":[2,4,6,8,10,12,14,-1,-1,-1,-1,16,18,20,22,-1,-1,-1,-1,-1,-1,24,26,-1,-1,28,30,-1,32,-1,-1,-1,-1],"split_conditions":[-3.502849E2,-5.0591846E1,-5.090612E1,-1.317703E2,-6.4005556E0,-9.37627E0,1.5296062E2,3.0545166E0,2.6009262E0,2.1705499E0,1.7647845E0,-2.1736302E2,-1.7982556E2,-4.248721E1,9.351738E1,1.4350426E0,1.2154177E0,1.0520513E0,8.4368795E-1,7.0323503E-1,5.634841E-1,-4.077394E1,6.0786686E1,5.161E-2,3.3460817E-1,-6.770514E1,4.636606E1,2.0275502E-2,1.03330765E1,2.2245E-1,9.4118E-2,1.0167632E-1,3.6305666E-2],"split_indices":[94,99,96,98,99,97,100,0,0,0,0,95,95,96,97,0,0,0,0,0,0,0,69,0,0,38,17,0,51,0,0,0,0],"split_type":[0,0,0,0,0,0,0,0,0,0,0,0,0,0,0,0,0,0,0,0,0,0,0,0,0,0,0,0,0,0,0,0,0],"sum_hessian":[1.762E3,9.39E2,8.23E2,4.35E2,5.04E2,4.5E2,3.73E2,1.79E2,2.56E2,2.68E2,2.36E2,2.29E2,2.21E2,1.62E2,2.11E2,1.4E2,8.9E1,1.09E2,1.12E2,4.5E1,1.17E2,1.08E2,1.03E2,1E0,1.07E2,9.7E1,6E0,1E0,9.6E1,2E0,4E0,9.4E1,2E0],"tree_param":{"num_deleted":"0","num_feature":"250","num_nodes":"33","size_leaf_vector":"0"}},{"base_weights":[1.47584095E1,2.1657597E1,7.7160354E0,2.5623365E1,1.8597363E1,1.1327445E1,4.028598E0,2.8196957E1,2.424723E1,2.035825E1,1.6727306E1,1.3123365E1,9.592118E0,5.932119E0,2.0073068E0,1.3877957E1,1.2051285E1,1.0395483E1,8.534304E0,6.9677987E0,5.151582E0,2.9959111E0,9.518725E-1,2.0342104E0,5.184144E0,4.90295E-1,3.0145714E0,9.0241545E-1,1.5082897E0,1.9261727E-1,9.0774727E-1,2.0762E0,8.658856E-1,9.1615707E-1,3.3885288E-1,2.5056183E-1,9.2057234E-1,5.0175893E-1,9.3361115E-1],"categories":[],"categories_nodes":[],"categories_segments":[],"categories_sizes":[],"default_left":[1,1,1,1,1,1,1,0,0,0,0,1,1,1,1,0,0,0,0,0,1,1,1,0,0,0,0,1,1,0,1,0,0,1,0,0,1,0,0],"id":1,"left_children":[1,3,5,7,9,11,13,-1,-1,-1,-1,15,17,19,21,-1,-1,-1,-1,-1,23,25,27,-1,-1,-1,-1,29,31,-1,33,-1,-1,35,-1,-1,37,-1,-1],"loss_changes":[8.549119E4,1.0324719E4,1.1593289E4,6.798125E2,1.3256875E3,1.2485E3,1.6579375E3,0E0,0E0,0E0,0E0,5.875E0,1.0503906E2,1.4437549E2,2.1835059E2,0E0,0E0,0E0,0E0,0E0,2.7521973E0,3.6183472E0,1.5008469E0,0E0,0E0,0E0,0E0,1.9602966E-1,7.5604343E-1,0E0,1.5364075E-1,0E0,0E0,4.852295E-2,0E0,0E0,4.48761E-2,0E0,0E0],"parents":[2147483647,0,0,1,1,2,2,3,3,4,4,5,5,6,6,11,11,12,12,13,13,14,14,20,20,21,21,22,22,27,27,28,28,30,30,33,33,36,36],"right_children":[2,4,6,8,10,12,14,-1,-1,-1,-1,16,18,20,22,-1,-1,-1,-1,-1,24,26,28,-1,-1,-1,-1,30,32,-1,34,-1,-1,36,-1,-1,38,-1,-1],"split_conditions":[-6.3034523E1,-9.252005E1,-1.6910385E2,-1.174261E2,-1.9643166E2,-4.12044E2,1.5296062E2,2.8196957E0,2.4247231E0,2.035825E0,1.6727307E0,4.989305E1,2.2840123E0,4.25497E1,9.351738E1,1.3877958E0,1.2051286E0,1.0395483E0,8.534304E-1,6.967799E-1,8.240438E1,-4.077394E1,6.0786686E1,2.0342104E-1,5.1841444E-1,4.90295E-2,3.0145714E-1,-6.770514E1,4.636606E1,1.9261727E-2,1.03330765E1,2.0762001E-1,8.658856E-2,-1.6970587E1,3.388529E-2,2.5056183E-2,4.0016785E1,5.0175894E-2,9.336112E-2],"split_indices":[97,98,95,101,96,93,100,0,0,0,0,100,97,97,97,0,0,0,0,0,132,0,69,0,0,0,0,38,17,0,51,0,0,46,0,0,135,0,0],"split_type":[0,0,0,0,0,0,0,0,0,0,0,0,0,0,0,0,0,0,0,0,0,0,0,0,0,0,0,0,0,0,0,0,0,0,0,0,0,0,0],"sum_hessian":[1.762E3,8.89E2,8.73E2,3.84E2,5.05E2,4.4E2,4.33E2,1.27E2,2.57E2,2.55E2,2.5E2,2.13E2,2.27E2,2.22E2,2.11E2,1.18E2,9.5E1,1.24E2,1.03E2,9.2E1,1.3E2,1.08E2,1.03E2,2E0,1.28E2,1E0,1.07E2,9.7E1,6E0,1E0,9.6E1,2E0,4E0,9.4E1,2E0,1E0,9.3E1,4E0,8.9E1],"tree_param":{"num_deleted":"0","num_feature":"250","num_nodes":"39","size_leaf_vector":"0"}},{"base_weights":[1.3291488E1,1.9475286E1,6.921824E0,2.3173023E1,1.6783484E1,1.0166755E1,3.6234372E0,2.5034721E1,2.1664116E1,1.8541073E1,1.51683445E1,1.1727202E1,8.567186E0,5.338233E0,1.8106631E0,1.59314575E1,1.3954817E1,1.2465212E1,1.08072195E1,9.29491E0,7.6816325E0,6.206279E0,4.589104E0,2.6995354E0,8.616463E-1,2.253748E0,4.628707E0,2.7434638E0,1.2371329E0,8.1443655E-1,1.3994905E0,1.8298641E-1,8.190599E-1,1.9377866E0,7.9661477E-1,8.749348E-1,6.7822236E-1,1.5538952E-1,6.9007534E-1],"categories":[],"categories_nodes":[],"categories_segments":[],"categories_sizes":[],"default_left":[1,1,1,1,1,1,1,0,0,0,1,1,1,1,1,0,0,0,0,0,0,0,1,1,1,0,0,0,0,1,1,0,1,0,0,0,1,0,0],"id":2,"left_children":[1,3,5,7,9,11,13,-1,-1,-1,15,17,19,21,23,-1,-1,-1,-1,-1,-1,-1,25,27,29,-1,-1,-1,-1,31,33,-1,35,-1,-1,-1,37,-1,-1],"loss_changes":[6.93075E4,8.509594E3,9.274801E3,5.0826562E2,1.19775E3,9.927969E2,1.336331E3,0E0,0E0,0E0,3.4203125E1,1.39765625E1,7.037695E1,1.1588037E2,1.7650757E2,0E0,0E0,0E0,0E0,0E0,0E0,0E0,9.440918E-1,3.6082153E0,1.5009079E0,0E0,0E0,0E0,0E0,1.3623047E-1,7.280102E-1,0E0,1.6992188E-1,0E0,0E0,0E0,9.107876E-2,0E0,0E0],"parents":[2147483647,0,0,1,1,2,2,3,3,4,4,5,5,6,6,10,10,11,11,12,12,13,13,14,14,22,22,23,23,24,24,29,29,30,30,32,32,36,36],"right_children":[2,4,6,8,10,12,14,-1,-1,-1,16,18,20,22,24,-1,-1,-1,-1,-1,-1,-1,26,28,30,-1,-1,-1,-1,32,34,-1,36,-1,-1,-1,38,-1,-1],"split_conditions":[3.0321705E1,-5.3316437E2,-1.6880673E2,-2.8256177E2,-5.1853043E1,-2.1145624E2,1.5296062E2,2.503472E0,2.1664116E0,1.8541073E0,-3.7830267E2,4.989305E1,2.2840123E0,1.3100262E2,9.351738E1,1.5931457E0,1.3954817E0,1.2465212E0,1.080722E0,9.2949104E-1,7.6816326E-1,6.206279E-1,8.846112E1,-2.564508E2,6.0786686E1,2.253748E-1,4.628707E-1,2.7434638E-1,1.2371329E-1,-6.770514E1,4.636606E1,1.829864E-2,-3.6212808E2,1.9377866E-1,7.966148E-2,8.749348E-2,1.8536774E1,1.5538952E-2,6.900754E-2],"split_indices":[100,93,95,96,98,95,100,0,0,0,94,100,97,100,97,0,0,0,0,0,0,0,131,88,69,0,0,0,0,38,17,0,92,0,0,0,21,0,0],"split_type":[0,0,0,0,0,0,0,0,0,0,0,0,0,0,0,0,0,0,0,0,0,0,0,0,0,0,0,0,0,0,0,0,0,0,0,0,0,0,0],"sum_hessian":[1.762E3,8.93E2,8.69E2,3.73E2,5.2E2,4.37E2,4.32E2,1.6E2,2.13E2,2.44E2,2.76E2,2.18E2,2.19E2,2.21E2,2.11E2,1.62E2,1.14E2,1.14E2,1.04E2,1.15E2,1.04E2,9.9E1,1.22E2,1.08E2,1.03E2,3E0,1.19E2,1.04E2,4E0,9.7E1,6E0,1E0,9.6E1,2E0,4E0,6.5E1,3.1E1,1E0,3E1],"tree_param":{"num_deleted":"0","num_feature":"250","num_nodes":"39","size_leaf_vector":"0"}},{"base_weights":[1.1971249E1,1.7490828E1,6.181654E0,2.0450193E1,1.4715014E1,9.230427E0,3.3828156E0,2.2048246E1,1.8688608E1,1.6031286E1,1.3301275E1,1.059452E1,7.9312596E0,4.888537E0,1.600225E0,8.479028E0,7.1067543E0,5.7569757E0,4.1565638E0,2.3974564E0,7.799411E-1,2.4209642E0,4.2043276E0,2.4360604E0,1.1381623E0,7.3493516E-1,1.2986044E0,1.738371E-1,7.3892754E-1,1.8086008E0,7.3288554E-1,7.88767E-1,6.1304224E-1,2.3098454E-1,7.9379463E-1,1.4762005E-1,6.232939E-1,6.398247E-1,2.5573173E-1],"categories":[],"categories_nodes":[],"categories_segments":[],"categories_sizes":[],"default_left":[1,1,1,1,1,1,1,0,0,0,0,0,1,1,1,0,0,0,1,1,1,0,0,0,0,1,1,0,1,0,0,1,1,0,0,0,1,0,0],"id":3,"left_children":[1,3,5,7,9,11,13,-1,-1,-1,-1,-1,15,17,19,-1,-1,-1,21,23,25,-1,-1,-1,-1,27,29,-1,31,-1,-1,33,35,-1,-1,-1,37,-1,-1],"loss_changes":[5.62305E4,7.1086875E3,7.324242E3,8.0971875E2,6.595156E2,6.461094E2,1.2026997E3,0E0,0E0,0E0,0E0,0E0,3.684375E1,1.3117432E2,1.3415302E2,0E0,0E0,0E0,1.0959473E0,2.331787E0,1.473278E0,0E0,0E0,0E0,0E0,9.107971E-2,6.9410515E-1,0E0,1.2503433E-1,0E0,0E0,1.7356873E-3,6.067276E-2,0E0,0E0,0E0,2.473545E-2,0E0,0E0],"parents":[2147483647,0,0,1,1,2,2,3,3,4,4,5,5,6,6,12,12,13,13,14,14,18,18,19,19,20,20,25,25,26,26,28,28,31,31,32,32,36,36],"right_children":[2,4,6,8,10,12,14,-1,-1,-1,-1,-1,16,18,20,-1,-1,-1,22,24,26,-1,-1,-1,-1,28,30,-1,32,-1,-1,34,36,-1,-1,-1,38,-1,-1],"split_conditions":[-4.4801447E2,-4.62026E1,2.097182E1,-2.717269E2,-5.449458E2,6.778332E1,1.3025084E2,2.2048247E0,1.8688608E0,1.6031287E0,1.3301276E0,1.0594519E0,1.4791551E0,4.2458443E1,9.351738E1,8.479028E-1,7.106754E-1,5.756976E-1,8.370705E1,-2.564508E2,6.0786686E1,2.4209642E-1,4.2043278E-1,2.4360605E-1,1.13816224E-1,-6.770514E1,4.636606E1,1.738371E-2,-3.6212808E2,1.8086009E-1,7.328855E-2,1.3188861E2,1.8536774E1,2.3098454E-2,7.937946E-2,1.4762006E-2,2.421883E1,6.398247E-2,2.5573174E-2],"split_indices":[93,100,97,96,92,99,98,0,0,0,0,0,97,97,97,0,0,0,132,88,69,0,0,0,0,38,17,0,92,0,0,241,21,0,0,0,107,0,0],"split_type":[0,0,0,0,0,0,0,0,0,0,0,0,0,0,0,0,0,0,0,0,0,0,0,0,0,0,0,0,0,0,0,0,0,0,0,0,0,0,0],"sum_hessian":[1.762E3,9.01E2,8.61E2,4.33E2,4.68E2,4.11E2,4.5E2,2.21E2,2.12E2,2.37E2,2.31E2,1.97E2,2.14E2,2.43E2,2.07E2,1.23E2,9.1E1,1.08E2,1.35E2,1.04E2,1.03E2,5E0,1.3E2,1E2,4E0,9.7E1,6E0,1E0,9.6E1,2E0,4E0,6.5E1,3.1E1,1E0,6.4E1,1E0,3E1,2.8E1,2E0],"tree_param":{"num_deleted":"0","num_feature":"250","num_nodes":"39","size_leaf_vector":"0"}},{"base_weights":[1.078076E1,1.591593E1,5.725794E0,1.888744E1,1.377809E1,8.52662E0,3.112634E0,2.1209103E1,1.8009203E1,1.5307467E1,1.2582727E1,9.786514E0,7.318885E0,4.4860816E0,1.4718415E0,1.30917E1,1.1453109E1,7.918734E0,6.697311E0,5.2351093E0,3.7711623E0,2.226048E0,7.3872834E-1,1.586949E0,3.7925582E0,2.243373E0,8.949881E-1,1.2932296E0,6.696552E-1,1.6300893E0,5.6297994E-1,7.137637E-1,5.549979E-1,1.6514525E-1,7.194872E-1,1.4023906E-1,5.638534E-1,2.2611482E-1,5.793486E-1],"categories":[],"categories_nodes":[],"categories_segments":[],"categories_sizes":[],"default_left":[1,1,1,1,1,1,1,0,0,0,1,0,1,1,1,0,0,0,0,0,1,1,1,0,0,0,0,1,1,0,0,1,1,0,0,0,1,0,0],"id":4,"left_children":[1,3,5,7,9,11,13,-1,-1,-1,15,-1,17,19,21,-1,-1,-1,-1,-1,23,25,27,-1,-1,-1,-1,29,31,-1,-1,33,35,-1,-1,-1,37,-1,-1],"loss_changes":[4.5673E4,5.291953E3,6.487375E3,3.581953E2,7.4340625E2,5.8114844E2,1.0345342E3,0E0,0E0,0E0,1.8515625E1,0E0,3.0111328E1,1.14666504E2,1.1557437E2,0E0,0E0,0E0,0E0,0E0,1.5026855E-1,3.9050293E-1,3.3088074E0,0E0,0E0,0E0,0E0,1.7882023E0,1.0454559E-1,0E0,0E0,9.469986E-2,3.845787E-2,0E0,0E0,0E0,3.1235695E-2,0E0,0E0],"parents":[2147483647,0,0,1,1,2,2,3,3,4,4,5,5,6,6,10,10,12,12,13,13,14,14,20,20,21,21,22,22,27,27,28,28,31,31,32,32,36,36],"right_children":[2,4,6,8,10,12,14,-1,-1,-1,16,-1,18,20,22,-1,-1,-1,-1,-1,24,26,28,-1,-1,-1,-1,30,32,-1,-1,34,36,-1,-1,-1,38,-1,-1],"split_conditions":[-4.5966286E1,-5.352304E2,1.0530407E2,-5.864393E2,-4.059323E1,-2.1736302E2,1.5296062E2,2.1209104E0,1.8009204E0,1.5307468E0,-8.521915E1,9.7865146E-1,-9.399673E1,4.2458443E1,-2.1288599E2,1.30917E0,1.1453109E0,7.918734E-1,6.697311E-1,5.2351093E-1,8.240438E1,1.5486657E1,1.5556851E2,1.5869491E-1,3.7925583E-1,2.243373E-1,8.949881E-2,-3.9996124E1,-3.6212808E2,1.6300893E-1,5.6297995E-2,-7.774236E1,1.8536774E1,1.6514525E-2,7.194872E-2,1.4023907E-2,-1.892089E1,2.2611482E-2,5.793486E-2],"split_indices":[103,93,100,93,101,95,100,0,0,0,97,0,96,97,94,0,0,0,0,0,132,164,98,0,0,0,0,86,92,0,0,37,21,0,0,0,43,0,0],"split_type":[0,0,0,0,0,0,0,0,0,0,0,0,0,0,0,0,0,0,0,0,0,0,0,0,0,0,0,0,0,0,0,0,0,0,0,0,0,0,0],"sum_hessian":[1.762E3,8.73E2,8.89E2,3.62E2,5.11E2,4.28E2,4.61E2,9.3E1,2.69E2,2.19E2,2.92E2,2.06E2,2.22E2,2.5E2,2.11E2,1.94E2,9.8E1,1.07E2,1.15E2,1.19E2,1.31E2,1.03E2,1.08E2,2E0,1.29E2,1.01E2,2E0,1E1,9.8E1,6E0,4E0,6.7E1,3.1E1,1E0,6.6E1,1E0,3E1,2E0,2.8E1],"tree_param":{"num_deleted":"0","num_feature":"250","num_nodes":"39","size_leaf_vector":"0"}},{"base_weights":[9.709561E0,1.3899921E1,4.6826043E0,1.6411139E1,1.1452586E1,6.6771784E0,2.2465444E0,1.8097425E1,1.5115648E1,1.2488249E1,1.0146074E1,7.870699E0,5.5779386E0,3.4455903E0,1.2410713E0,8.437532E0,7.343518E0,6.1130176E0,4.805153E0,3.7402503E0,2.895748E0,1.880158E0,6.392118E-1,8.254591E-1,2.9161549E0,3.188665E-1,1.8932362E0,5.991613E-1,1.1086022E0,4.1357693E-1,6.1787224E-1,1.558912E0,6.1669576E-1,2.1906787E-1,6.246786E-1,6.317113E-1,2.2188054E-1,6.3547796E-1,1.6142347E-1,6.390982E-1,1.711188E-1],"categories":[],"categories_nodes":[],"categories_segments":[],"categories_sizes":[],"default_left":[1,1,1,1,1,1,1,0,0,0,0,1,1,1,1,0,0,0,0,0,1,1,1,0,0,0,0,1,1,0,1,0,0,0,1,1,0,1,0,0,0],"id":5,"left_children":[1,3,5,7,9,11,13,-1,-1,-1,-1,15,17,19,21,-1,-1,-1,-1,-1,23,25,27,-1,-1,-1,-1,29,31,-1,33,-1,-1,-1,35,37,-1,39,-1,-1,-1],"loss_changes":[3.7072062E4,5.718172E3,3.8866973E3,7.575625E2,5.363203E2,5.346758E2,4.333595E2,0E0,0E0,0E0,0E0,4.9316406E-1,6.697168E1,1.5901855E1,7.534161E1,0E0,0E0,0E0,0E0,0E0,2.1228027E-1,1.3565063E0,1.2908974E0,0E0,0E0,0E0,0E0,8.476257E-2,5.8919716E-1,0E0,9.9308014E-2,0E0,0E0,0E0,1.0062027E-1,4.4445038E-2,0E0,2.848816E-2,0E0,0E0,0E0],"parents":[2147483647,0,0,1,1,2,2,3,3,4,4,5,5,6,6,11,11,12,12,13,13,14,14,20,20,21,21,22,22,27,27,28,28,30,30,34,34,35,35,37,37],"right_children":[2,4,6,8,10,12,14,-1,-1,-1,-1,16,18,20,22,-1,-1,-1,-1,-1,24,26,28,-1,-1,-1,-1,30,32,-1,34,-1,-1,-1,36,38,-1,40,-1,-1,-1],"split_conditions":[-3.459716E2,-4.27852E2,3.3482803E1,-1.2332219E2,2.4225435E0,-9.37627E0,7.248041E1,1.8097426E0,1.5115649E0,1.248825E0,1.0146074E0,-4.2132874E2,1.0530407E2,-2.8888638E1,9.351738E1,8.437533E-1,7.343518E-1,6.113018E-1,4.805153E-1,3.7402505E-1,9.176776E0,-4.077394E1,6.0786686E1,8.2545914E-2,2.916155E-1,3.188665E-2,1.8932362E-1,4.560726E1,4.636606E1,4.1357692E-2,-1.3886745E1,1.5589121E-1,6.1669577E-2,2.1906788E-2,1.03330765E1,-3.5044165E2,2.2188054E-2,1.5539276E2,1.6142348E-2,6.390982E-2,1.711188E-2],"split_indices":[94,94,103,102,100,97,97,0,0,0,0,93,100,96,97,0,0,0,0,0,22,0,69,0,0,0,0,135,17,0,48,0,0,0,51,92,0,80,0,0,0],"split_type":[0,0,0,0,0,0,0,0,0,0,0,0,0,0,0,0,0,0,0,0,0,0,0,0,0,0,0,0,0,0,0,0,0,0,0,0,0,0,0,0,0],"sum_hessian":[1.762E3,9.6E2,8.02E2,4.71E2,4.89E2,4.4E2,3.62E2,1.99E2,2.72E2,2.68E2,2.21E2,2.08E2,2.32E2,1.64E2,1.98E2,9.3E1,1.15E2,1.33E2,9.9E1,1.03E2,6.1E1,9.5E1,1.03E2,1E0,6E1,1E0,9.4E1,9.7E1,6E0,1.1E1,8.6E1,2E0,4E0,2E0,8.4E1,8.2E1,2E0,8.1E1,1E0,8E1,1E0],"tree_param":{"num_deleted":"0","num_feature":"250","num_nodes":"41","size_leaf_vector":"0"}},{"base_weights":[8.744063E0,1.2932496E1,4.658292E0,1.5491267E1,1.1269756E1,6.8352747E0,2.436495E0,1.7774225E1,1.4844411E1,1.247924E1,1.02216015E1,7.8633E0,5.7677326E0,3.578131E0,1.2148695E0,1.0591627E1,9.296031E0,8.298109E0,7.1092234E0,6.1832843E0,5.1228333E0,4.095586E0,3.010694E0,1.8204671E0,6.0368216E-1,1.1487116E0,3.0338945E0,1.9754303E0,1.5686597E0,1.0632868E0,5.4651713E-1,1.9889674E0,5.6806064E-1,4.612221E-1,1.5830201E0,1.3328661E0,4.7321832E-1,5.8345354E-1,4.509487E-1,1.5979555E0,4.629299E-1,3.466572E-1,6.0077804E-1,1.22133076E-1,4.5761588E-1,4.866356E-1,2.886003E-1,2.2117196E-1,5.127819E-1],"categories":[],"categories_nodes":[],"categories_segments":[],"categories_sizes":[],"default_left":[1,1,1,1,1,1,1,0,0,0,1,1,1,1,1,0,0,0,0,0,0,0,1,1,1,0,0,1,1,1,1,0,0,0,1,0,0,1,1,0,0,0,0,0,1,1,0,0,0],"id":6,"left_children":[1,3,5,7,9,11,13,-1,-1,-1,15,17,19,21,23,-1,-1,-1,-1,-1,-1,-1,25,27,29,-1,-1,31,33,35,37,-1,-1,-1,39,-1,-1,41,43,-1,-1,-1,-1,-1,45,47,-1,-1,-1],"loss_changes":[3.0109953E4,3.5268906E3,4.307459E3,2.3825E2,5.4559375E2,4.4960156E2,6.148784E2,0E0,0E0,0E0,8.6328125E-1,1.5435547E1,2.862207E1,5.4908936E1,7.884985E1,0E0,0E0,0E0,0E0,0E0,0E0,0E0,1.3963623E0,1.1154785E0,2.2826843E0,0E0,0E0,7.041931E-2,1.4190674E-3,1.1190357E0,8.635521E-2,0E0,0E0,0E0,1.3069153E-2,0E0,0E0,7.069969E-2,1.4262199E-2,0E0,0E0,0E0,0E0,0E0,1.1605263E-2,6.0109615E-2,0E0,0E0,0E0],"parents":[2147483647,0,0,1,1,2,2,3,3,4,4,5,5,6,6,10,10,11,11,12,12,13,13,14,14,22,22,23,23,24,24,27,27,28,28,29,29,30,30,34,34,37,37,38,38,44,44,45,45],"right_children":[2,4,6,8,10,12,14,-1,-1,-1,16,18,20,22,24,-1,-1,-1,-1,-1,-1,-1,26,28,30,-1,-1,32,34,36,38,-1,-1,-1,40,-1,-1,42,44,-1,-1,-1,-1,-1,46,48,-1,-1,-1],"split_conditions":[-5.6750855E0,-1.0129991E2,-2.7772125E2,-1.3297836E2,-4.065363E1,4.7650696E1,-3.320458E2,1.7774225E0,1.4844412E0,1.2479241E0,-3.7830267E2,4.8494896E1,6.303662E1,-4.1899023E2,-2.1288599E2,1.0591627E0,9.296031E-1,8.298109E-1,7.1092236E-1,6.1832845E-1,5.122833E-1,4.095586E-1,-1.0787964E1,-1.1282713E2,1.5556851E2,1.1487116E-1,3.0338946E-1,9.555568E1,4.7420147E1,-3.9996124E1,-3.6212808E2,1.9889675E-1,5.6806065E-2,4.6122212E-2,2.340079E1,1.3328661E-1,4.7321834E-2,4.560726E1,1.8536774E1,1.5979555E-1,4.629299E-2,3.466572E-2,6.0077805E-2,1.2213307E-2,1.1328703E2,-1.127371E1,2.886003E-2,2.2117196E-2,5.1278193E-2],"split_indices":[98,102,94,101,101,101,93,0,0,0,94,99,98,92,94,0,0,0,0,0,0,0,58,95,98,0,0,125,68,86,92,0,0,0,112,0,0,135,21,0,0,0,0,0,79,47,0,0,0],"split_type":[0,0,0,0,0,0,0,0,0,0,0,0,0,0,0,0,0,0,0,0,0,0,0,0,0,0,0,0,0,0,0,0,0,0,0,0,0,0,0,0,0,0,0,0,0,0,0,0,0],"sum_hessian":[1.762E3,8.69E2,8.93E2,3.39E2,5.3E2,4.5E2,4.43E2,6.9E1,2.7E2,2.41E2,2.89E2,2.26E2,2.24E2,2.28E2,2.15E2,1.99E2,9E1,1.37E2,8.9E1,1.31E2,9.3E1,1.16E2,1.12E2,1.07E2,1.08E2,2E0,1.1E2,6.2E1,4.5E1,1E1,9.8E1,6.1E1,1E0,1E0,4.4E1,6E0,4E0,6.7E1,3.1E1,4.3E1,1E0,6E0,6.1E1,1E0,3E1,2.4E1,6E0,3E0,2.1E1],"tree_param":{"num_deleted":"0","num_feature":"250","num_nodes":"49","size_leaf_vector":"0"}},{"base_weights":[7.8758373E0,1.1629748E1,4.180563E0,1.3862872E1,1.0068253E1,6.183284E0,2.2349286E0,1.5317857E1,1.3022804E1,1.1160075E1,9.16449E0,7.0604687E0,5.2235327E0,3.2583222E0,1.0969535E0,9.422614E0,8.088953E0,7.4969664E0,6.446021E0,5.5729203E0,4.6841154E0,3.7552357E0,2.7298522E0,1.6419529E0,5.4689026E-1,2.739933E0,7.701688E-1,1.8742802E0,1.4718082E0,9.73377E-1,4.9397868E-1,1.1473219E0,2.7575011E0,1.895882E0,4.943031E-1,7.040693E-1,1.4967948E0,1.2186203E0,4.3536085E-1,4.4259125E-1,5.5871034E-1,1.9162961E0,5.396576E-1,4.3816102E-1,1.5066437E0,4.535712E-1,2.3109768E-1,5.70574E-1,2.2220095E-1,4.397834E-1,1.5167577E0,1.7024653E-1,4.60912E-1,4.714511E-1,2.1131001E-1,4.820674E-1,2.2619265E-1],"categories":[],"categories_nodes":[],"categories_segments":[],"categories_sizes":[],"default_left":[1,1,1,1,1,1,1,0,0,0,1,1,1,1,1,0,0,0,0,0,0,0,1,1,1,1,0,1,1,1,1,0,0,1,0,0,1,0,0,1,1,0,0,0,1,1,0,0,0,0,0,0,1,1,0,0,0],"id":7,"left_children":[1,3,5,7,9,11,13,-1,-1,-1,15,17,19,21,23,-1,-1,-1,-1,-1,-1,-1,25,27,29,31,-1,33,35,37,39,-1,-1,41,-1,-1,43,-1,-1,45,47,-1,-1,-1,49,51,-1,-1,-1,-1,-1,-1,53,55,-1,-1,-1],"loss_changes":[2.440725E4,2.9080781E3,3.454121E3,2.3686719E2,4.0885938E2,3.3186328E2,5.2398804E2,0E0,0E0,0E0,4.015625E0,1.22890625E1,1.40390625E1,5.2248535E1,6.3855408E1,0E0,0E0,0E0,0E0,0E0,0E0,0E0,2.4060059E-1,1.5105591E0,1.9788742E0,1.3781738E-1,0E0,3.1489563E-1,2.3143005E-1,9.2085457E-1,8.203125E-2,0E0,0E0,1.00997925E-1,0E0,0E0,7.1411133E-3,0E0,0E0,3.4511566E-2,3.2907486E-2,0E0,0E0,0E0,1.2741089E-2,3.8002014E-2,0E0,0E0,0E0,0E0,0E0,0E0,4.2429924E-2,2.3750305E-2,0E0,0E0,0E0],"parents":[2147483647,0,0,1,1,2,2,3,3,4,4,5,5,6,6,10,10,11,11,12,12,13,13,14,14,22,22,23,23,24,24,25,25,27,27,28,28,29,29,30,30,33,33,36,36,39,39,40,40,44,44,45,45,52,52,53,53],"right_children":[2,4,6,8,10,12,14,-1,-1,-1,16,18,20,22,24,-1,-1,-1,-1,-1,-1,-1,26,28,30,32,-1,34,36,38,40,-1,-1,42,-1,-1,44,-1,-1,46,48,-1,-1,-1,50,52,-1,-1,-1,-1,-1,-1,54,56,-1,-1,-1],"split_conditions":[-4.5966286E1,-1.3614288E2,-6.666216E1,-1.0591945E2,-3.0858228E2,-4.767293E2,1.2821832E2,1.5317857E0,1.3022804E0,1.1160076E0,-3.0784898E0,-2.3426561E2,-3.9133804E2,1.3100262E2,-2.1288599E2,9.422614E-1,8.088953E-1,7.496967E-1,6.446021E-1,5.5729204E-1,4.6841154E-1,3.7552357E-1,1.7410835E1,1.0203923E2,1.5556851E2,8.846112E1,7.701688E-2,-4.864609E1,-8.273929E1,-3.9996124E1,8.8196945E1,1.147322E-1,2.7575013E-1,9.577228E1,4.943031E-2,7.0406936E-2,4.7283394E1,1.2186203E-1,4.3536086E-2,-1.851691E2,3.282466E1,1.9162962E-1,5.396576E-2,4.38161E-2,6.4792114E1,-5.5643517E1,2.310977E-2,5.70574E-2,2.2220096E-2,4.397834E-2,1.5167578E-1,1.7024653E-2,7.0643625E0,8.770912E1,2.1131001E-2,4.8206743E-2,2.2619266E-2],"split_indices":[103,105,96,100,95,92,101,0,0,0,101,95,93,100,94,0,0,0,0,0,0,0,46,102,98,131,0,191,36,86,129,0,0,125,0,0,68,0,0,94,185,0,0,0,124,39,0,0,0,0,0,0,48,129,0,0,0],"split_type":[0,0,0,0,0,0,0,0,0,0,0,0,0,0,0,0,0,0,0,0,0,0,0,0,0,0,0,0,0,0,0,0,0,0,0,0,0,0,0,0,0,0,0,0,0,0,0,0,0,0,0,0,0,0,0,0,0],"sum_hessian":[1.762E3,8.73E2,8.89E2,3.56E2,5.17E2,4.37E2,4.52E2,1.24E2,2.32E2,2.29E2,2.88E2,2.25E2,2.12E2,2.37E2,2.15E2,2.26E2,6.2E1,1.25E2,1E2,1.23E2,8.9E1,1.19E2,1.18E2,1.07E2,1.08E2,1.17E2,1E0,4.1E1,6.6E1,1E1,9.8E1,2E0,1.15E2,4E1,1E0,3E0,6.3E1,6E0,4E0,5.9E1,3.9E1,3.9E1,1E0,1E0,6.2E1,5.5E1,4E0,3.7E1,2E0,1E0,6.1E1,2E0,5.3E1,5E1,3E0,4.7E1,3E0],"tree_param":{"num_deleted":"0","num_feature":"250","num_nodes":"57","size_leaf_vector":"0"}},{"base_weights":[7.093895E0,1.0226906E1,3.5030599E0,1.2105082E1,8.510197E0,5.057598E0,1.7471795E0,1.3011435E1,1.0787226E1,9.26267E0,7.5353537E0,5.915419E0,4.234333E0,2.6139348E0,9.1084445E-1,1.4724975E1,1.2446531E1,6.352366E0,5.5242305E0,4.62365E0,3.6882026E0,2.9776044E0,2.256856E0,1.383577E0,4.8303586E-1,2.2915852E0,1.1386842E0,2.574942E-1,1.3929167E0,4.5017508E-1,8.834707E-1,5.88923E-1,2.3033087E0,6.5126413E-1,1.4104022E0,4.2237607E-1,5.907707E-1,1.2661113E0,4.7719222E-1,2.3369393E0,1.2305715E0,1.422848E0,5.751923E-1,1.835579E-1,4.2872006E-1,2.9068744E-1,6.4618546E-1,4.1625297E-1,1.4296335E0,4.5263994E-1,3.354062E-1,4.5906845E-1,1.6890414E-1,1.16974235E-1,4.6275893E-1],"categories":[],"categories_nodes":[],"categories_segments":[],"categories_sizes":[],"default_left":[1,1,1,1,1,1,1,1,0,0,0,1,1,1,1,0,0,0,0,0,0,0,1,1,1,1,0,0,1,1,1,0,1,0,1,1,1,0,0,0,0,1,0,0,1,0,0,0,0,1,0,1,0,0,0],"id":8,"left_children":[1,3,5,7,9,11,13,15,-1,-1,-1,17,19,21,23,-1,-1,-1,-1,-1,-1,-1,25,27,29,31,-1,-1,33,35,37,-1,39,-1,41,43,45,-1,-1,-1,-1,47,-1,-1,49,-1,-1,-1,-1,51,-1,53,-1,-1,-1],"loss_changes":[1.979814E4,2.9310312E3,2.2376094E3,3.935664E2,2.933047E2,2.8286133E2,2.7887952E2,6.839844E1,0E0,0E0,0E0,9.746094E-1,3.0999023E1,1.7953003E1,3.9577255E1,0E0,0E0,0E0,0E0,0E0,0E0,0E0,1.2739563E0,6.2994385E-1,9.970932E-1,5.5978394E-1,0E0,0E0,2.8749084E-1,1.4131546E-1,4.8403215E-1,0E0,5.515442E-1,0E0,1.17126465E-1,5.3115845E-2,4.4969082E-2,0E0,0E0,0E0,0E0,5.9661865E-3,0E0,0E0,3.5674095E-2,0E0,0E0,0E0,0E0,3.9196968E-2,0E0,2.4143219E-2,0E0,0E0,0E0],"parents":[2147483647,0,0,1,1,2,2,3,3,4,4,5,5,6,6,7,7,11,11,12,12,13,13,14,14,22,22,23,23,24,24,25,25,28,28,29,29,30,30,32,32,34,34,35,35,36,36,41,41,44,44,49,49,51,51],"right_children":[2,4,6,8,10,12,14,16,-1,-1,-1,18,20,22,24,-1,-1,-1,-1,-1,-1,-1,26,28,30,32,-1,-1,34,36,38,-1,40,-1,42,44,46,-1,-1,-1,-1,48,-1,-1,50,-1,-1,-1,-1,52,-1,54,-1,-1,-1],"split_conditions":[1.9879353E1,-5.95247E2,1.2090256E2,-7.8370316E1,-1.7122894E1,2.620383E1,7.248041E1,-1.3143484E2,1.0787226E0,9.2626697E-1,7.535354E-1,2.5428202E1,-1.7982556E2,4.556559E1,4.570202E0,1.4724975E0,1.2446531E0,6.352366E-1,5.5242306E-1,4.62365E-1,3.6882028E-1,2.9776046E-1,1.3471594E2,-4.077394E1,6.0786686E1,9.176776E0,1.13868415E-1,2.574942E-2,-6.3140488E1,1.1640578E-1,4.636606E1,5.88923E-2,-4.621265E1,6.512641E-2,1.5486657E1,4.0016785E1,-5.1705585E0,1.2661113E-1,4.771922E-2,2.3369394E-1,1.2305715E-1,4.7283394E1,5.7519227E-2,1.835579E-2,9.368666E1,2.9068744E-2,6.461855E-2,4.16253E-2,1.4296335E-1,1.03330765E1,3.354062E-2,-1.955931E0,1.6890414E-2,1.1697424E-2,4.6275895E-2],"split_indices":[101,91,99,100,101,102,97,99,0,0,0,98,95,103,96,0,0,0,0,0,0,0,101,0,69,22,0,0,38,43,17,0,192,0,164,135,55,0,0,0,0,68,0,0,103,0,0,0,0,51,0,112,0,0,0],"split_type":[0,0,0,0,0,0,0,0,0,0,0,0,0,0,0,0,0,0,0,0,0,0,0,0,0,0,0,0,0,0,0,0,0,0,0,0,0,0,0,0,0,0,0,0,0,0,0,0,0,0,0,0,0,0,0],"sum_hessian":[1.762E3,9.4E2,8.22E2,4.46E2,4.94E2,4.35E2,3.87E2,2.59E2,1.87E2,2.74E2,2.2E2,2.1E2,2.25E2,1.89E2,1.98E2,5.8E1,2.01E2,9.2E1,1.18E2,1.27E2,9.8E1,9E1,9.9E1,9.3E1,1.05E2,9.5E1,4E0,1E0,9.2E1,9.9E1,6E0,1E0,9.4E1,3E0,8.9E1,8.6E1,1.3E1,2E0,4E0,9E1,4E0,8.7E1,2E0,3E0,8.3E1,3E0,1E1,1E0,8.6E1,6.3E1,2E1,6.1E1,2E0,1E0,6E1],"tree_param":{"num_deleted":"0","num_feature":"250","num_nodes":"55","size_leaf_vector":"0"}},{"base_weights":[6.3896384E0,9.544088E0,3.488828E0,1.1500935E1,8.40971E0,5.1265826E0,1.8399287E0,1.311331E1,1.0987316E1,9.370204E0,7.662036E0,5.8542676E0,4.323698E0,2.6671782E0,8.9309514E-1,6.1539717E0,5.3085017E0,4.6853757E0,3.923416E0,3.0940623E0,2.232617E0,1.332734E0,4.492961E-1,8.856318E-1,3.1050856E0,8.577756E-1,2.2479982E0,1.4536734E0,1.1381272E0,8.13865E-1,4.042501E-1,2.2563455E0,6.1481345E-1,4.0805936E-1,1.4639565E0,4.1901472E-1,1.0730711E0,4.4747466E-1,3.5101125E-1,2.2642896E0,6.47557E-1,1.9694978E-1,4.5902935E-1,1.837215E-1,3.6179876E-1,1.2312907E-1,4.6355638E-1,3.8080144E-1,2.2631115E-1,1.9365907E-1,4.712483E-1,3.09875E-1,4.423933E-1,1.3093583E-1,3.2181937E-1],"categories":[],"categories_nodes":[],"categories_segments":[],"categories_sizes":[],"default_left":[1,1,1,1,1,1,1,0,0,0,0,1,1,1,1,0,0,0,0,1,1,1,1,0,0,0,1,1,0,1,1,1,0,0,0,0,0,1,1,0,0,0,1,0,1,0,1,1,0,0,0,1,0,0,0],"id":9,"left_children":[1,3,5,7,9,11,13,-1,-1,-1,-1,15,17,19,21,-1,-1,-1,-1,23,25,27,29,-1,-1,-1,31,33,-1,35,37,39,-1,-1,-1,-1,-1,41,43,-1,-1,-1,45,-1,47,-1,49,51,-1,-1,-1,53,-1,-1,-1],"loss_changes":[1.6098961E4,1.7767969E3,2.4750205E3,1.1016016E2,3.145586E2,2.4402637E2,3.5792114E2,0E0,0E0,0E0,0E0,6.423828E0,1.3901855E1,3.854138E1,4.1545242E1,0E0,0E0,0E0,0E0,1.9567871E-1,7.1502686E-1,8.8739014E-1,1.4610348E0,0E0,0E0,0E0,2.8961182E-1,8.000183E-2,0E0,6.7619085E-1,7.075119E-2,9.301758E-2,0E0,0E0,0E0,0E0,0E0,5.722618E-2,2.195692E-2,0E0,0E0,0E0,1.591301E-2,0E0,2.9678822E-2,0E0,6.3123703E-3,2.8915882E-2,0E0,0E0,0E0,2.7458668E-3,0E0,0E0,0E0],"parents":[2147483647,0,0,1,1,2,2,3,3,4,4,5,5,6,6,11,11,12,12,13,13,14,14,19,19,20,20,21,21,22,22,26,26,27,27,29,29,30,30,31,31,37,37,38,38,42,42,44,44,46,46,47,47,51,51],"right_children":[2,4,6,8,10,12,14,-1,-1,-1,-1,16,18,20,22,-1,-1,-1,-1,24,26,28,30,-1,-1,-1,32,34,-1,36,38,40,-1,-1,-1,-1,-1,42,44,-1,-1,-1,46,-1,48,-1,50,52,-1,-1,-1,54,-1,-1,-1],"split_conditions":[-2.611009E2,-8.505401E1,5.1502426E1,-1.3330643E2,-7.147006E1,6.556282E1,-3.320458E2,1.311331E0,1.0987316E0,9.370204E-1,7.662036E-1,-5.5439484E-1,2.4507246E0,-2.5856702E2,-2.1288599E2,6.1539716E-1,5.308502E-1,4.6853757E-1,3.9234158E-1,-3.5189735E1,-1.0787964E1,-1.1282713E2,1.5556851E2,8.856318E-2,3.1050858E-1,8.5777566E-2,1.7410835E1,4.167655E1,1.1381272E-1,-1.9437349E0,-3.9868793E2,5.3029423E1,6.1481345E-2,4.0805936E-2,1.4639565E-1,4.1901473E-2,1.0730711E-1,2.7678503E1,-1.127371E1,2.2642897E-1,6.47557E-2,1.9694978E-2,-2.572379E2,1.837215E-2,1.1328703E2,1.2312907E-2,-2.522855E1,1.7509787E2,2.2631114E-2,1.9365907E-2,4.712483E-2,1.6246805E2,4.423933E-2,1.3093583E-2,3.2181937E-2],"split_indices":[95,101,102,101,102,100,93,0,0,0,0,102,103,94,94,0,0,0,0,0,58,95,98,0,0,0,46,15,0,53,91,19,0,0,0,0,0,76,47,0,0,0,212,0,79,0,0,83,0,0,0,224,0,0,0],"split_type":[0,0,0,0,0,0,0,0,0,0,0,0,0,0,0,0,0,0,0,0,0,0,0,0,0,0,0,0,0,0,0,0,0,0,0,0,0,0,0,0,0,0,0,0,0,0,0,0,0,0,0,0,0,0,0],"sum_hessian":[1.762E3,8.43E2,9.19E2,3.06E2,5.37E2,4.6E2,4.59E2,6.8E1,2.38E2,2.3E2,3.07E2,2.38E2,2.22E2,2.44E2,2.15E2,1.47E2,9.1E1,1.11E2,1.11E2,1.2E2,1.24E2,1.07E2,1.08E2,1E0,1.19E2,2E0,1.22E2,6.2E1,4.5E1,1E1,9.8E1,1.21E2,1E0,1E0,6.1E1,5E0,5E0,5E1,4.8E1,1.2E2,1E0,3E0,4.7E1,4E0,4.4E1,1E0,4.6E1,3.7E1,7E0,2E0,4.4E1,2E1,1.7E1,2E0,1.8E1],"tree_param":{"num_deleted":"0","num_feature":"250","num_nodes":"55","size_leaf_vector":"0"}},{"base_weights":[5.7550063E0,8.598086E0,3.1464598E0,1.0480147E1,7.6333423E0,4.581315E0,1.6146866E0,1.2240869E1,1.0086755E1,8.43571E0,6.854455E0,5.16324E0,3.704289E0,2.3055131E0,7.421715E-1,5.5447607E0,4.691263E0,3.8247564E0,2.9222577E0,2.682849E0,1.8971622E0,1.0975441E0,3.7212303E-1,1.0994728E0,3.8347306E0,2.7035072E0,9.278064E-1,1.9835285E0,1.4986597E0,1.1326538E0,4.6426293E-1,3.4829837E-1,5.029402E-1,8.106008E-1,1.9995208E0,1.5275936E0,3.8765633E-1,1.1459719E0,3.4224403E-1,1.5149474E-1,3.5352355E-1,2.4578911E-1,5.555065E-1,2.0082722E0,5.840728E-1,1.1585126E0,3.8357857E-1,1.3133784E-1,3.5734105E-1,1.1700505E0,4.3005124E-1,8.3746165E-2,3.5968485E-1,1.1810527E0,4.6097103E-1,8.8484585E-2,3.6196882E-1,3.35037E-1,1.1869943E0,3.6576727E-1,1.4255203E-1],"categories":[],"categories_nodes":[],"categories_segments":[],"categories_sizes":[],"default_left":[1,1,1,1,1,1,1,0,0,0,0,1,1,1,1,0,0,1,0,1,1,1,1,0,0,0,0,1,1,1,0,1,1,0,1,0,0,1,0,0,1,0,0,0,0,1,0,0,1,1,0,0,1,1,0,0,1,0,0,0,0],"id":10,"left_children":[1,3,5,7,9,11,13,-1,-1,-1,-1,15,17,19,21,-1,-1,23,-1,25,27,29,31,-1,-1,-1,-1,33,35,37,-1,39,41,-1,43,-1,-1,45,-1,-1,47,-1,-1,-1,-1,49,-1,-1,51,53,-1,-1,55,57,-1,-1,59,-1,-1,-1,-1],"loss_changes":[1.3047891E4,1.4506406E3,2.0168428E3,7.254883E1,2.927793E2,2.2329688E2,2.6772107E2,0E0,0E0,0E0,0E0,2.4947266E1,7.005371E0,3.3277466E1,2.5761093E1,0E0,0E0,2.4194336E-1,0E0,2.0962524E0,1.2606812E0,1.7198105E0,1.3337708E-1,0E0,0E0,0E0,0E0,2.1746826E-1,2.4360657E-1,6.078415E-1,0E0,3.5907745E-2,3.9190054E-2,0E0,1.6143799E-2,0E0,0E0,4.447937E-1,0E0,0E0,2.4316788E-2,0E0,0E0,0E0,0E0,2.6166534E-1,0E0,0E0,2.2459984E-2,1.4989471E-1,0E0,0E0,1.8143654E-2,3.9627075E-2,0E0,0E0,1.453495E-2,0E0,0E0,0E0,0E0],"parents":[2147483647,0,0,1,1,2,2,3,3,4,4,5,5,6,6,11,11,12,12,13,13,14,14,17,17,19,19,20,20,21,21,22,22,27,27,28,28,29,29,31,31,32,32,34,34,37,37,40,40,45,45,48,48,49,49,52,52,53,53,56,56],"right_children":[2,4,6,8,10,12,14,-1,-1,-1,-1,16,18,20,22,-1,-1,24,-1,26,28,30,32,-1,-1,-1,-1,34,36,38,-1,40,42,-1,44,-1,-1,46,-1,-1,48,-1,-1,-1,-1,50,-1,-1,52,54,-1,-1,56,58,-1,-1,60,-1,-1,-1,-1],"split_conditions":[-3.6676404E2,-1.1169235E2,-3.7187708E2,-6.006169E2,-6.900816E1,-4.4925903E1,7.248041E1,1.2240869E0,1.0086755E0,8.43571E-1,6.854455E-1,-2.3492749E2,-2.2158651E1,1.0992558E2,-9.810826E1,5.544761E-1,4.691263E-1,-3.1091679E1,2.9222578E-1,5.068622E1,-3.6403848E2,-2.5672693E2,1.1640578E-1,1.0994728E-1,3.8347307E-1,2.7035072E-1,9.278064E-2,3.436862E1,-4.405942E1,8.461811E1,4.6426293E-2,4.0016785E1,-5.1705585E0,8.106008E-2,1.7410835E1,1.5275936E-1,3.8765635E-2,-4.2139145E1,3.4224402E-2,1.5149474E-2,-1.3886745E1,2.4578912E-2,5.5550653E-2,2.0082723E-1,5.8407284E-2,3.489409E1,3.8357858E-2,1.3133784E-2,-6.770514E1,1.5486657E1,4.3005124E-2,8.3746165E-3,1.2288237E2,-1.44980345E1,4.6097104E-2,8.8484585E-3,1.03330765E1,3.35037E-2,1.1869943E-1,3.657673E-2,1.4255203E-2],"split_indices":[94,98,93,93,102,105,97,0,0,0,0,95,105,101,95,0,0,0,0,85,89,88,43,0,0,0,0,13,190,103,0,135,55,0,46,0,0,192,0,0,48,0,0,0,0,185,0,0,38,164,0,0,242,48,0,0,51,0,0,0,0],"split_type":[0,0,0,0,0,0,0,0,0,0,0,0,0,0,0,0,0,0,0,0,0,0,0,0,0,0,0,0,0,0,0,0,0,0,0,0,0,0,0,0,0,0,0,0,0,0,0,0,0,0,0,0,0,0,0,0,0,0,0,0,0],"sum_hessian":[1.762E3,8.42E2,9.2E2,2.82E2,5.6E2,4.74E2,4.46E2,4.6E1,2.36E2,2.71E2,2.89E2,2.82E2,1.92E2,2.48E2,1.98E2,1.5E2,1.32E2,1.63E2,2.9E1,1.26E2,1.22E2,1E2,9.8E1,1E0,1.62E2,1.24E2,2E0,9.7E1,2.5E1,9.4E1,6E0,8.6E1,1.2E1,2E0,9.5E1,2.4E1,1E0,9.2E1,2E0,3E0,8.3E1,3E0,9E0,9.4E1,1E0,9E1,2E0,2E0,8.1E1,8.8E1,2E0,1E0,8E1,8.6E1,2E0,1E0,7.9E1,1E0,8.5E1,7.7E1,2E0],"tree_param":{"num_deleted":"0","num_feature":"250","num_nodes":"61","size_leaf_vector":"0"}},{"base_weights":[5.183478E0,7.7266264E0,2.8181047E0,9.324167E0,6.7858095E0,4.1043572E0,1.4503672E0,1.0421649E1,8.795677E0,7.5149913E0,6.1315494E0,4.667389E0,3.3762155E0,2.0726871E0,6.706518E-1,6.3976183E0,5.6191926E0,4.961698E0,4.2262964E0,3.567253E0,2.9180868E0,2.4357345E0,1.727208E0,9.9135715E-1,3.3669323E-1,1.0444992E0,3.5776634E0,2.477847E0,1.5469533E0,1.8635892E0,1.4794099E0,1.0226926E0,4.2446896E-1,3.1457585E-1,4.5880994E-1,8.137026E-1,1.8939264E0,1.6003014E0,1.1149411E0,1.0343817E0,3.1942773E-1,3.382181E-1,2.5267908E-1,2.2735491E-1,5.055109E-1,5.6118727E-2,1.0475243E0,5.5286884E-1,1.9042972E0,1.6422187E0,5.918045E-1,1.0524732E0,5.0547814E-1,3.456524E-1,1.4772463E-1,2.6599872E-1,1.3820902E-1,4.0989935E-1,1.6671405E0,1.0628272E0,4.013811E-1,1.19479656E-1,3.517045E-1,1.2946817E-1,2.793379E-1,1.0726501E0,4.3023968E-1,7.919747E-2,3.552843E-1,1.078071E0,3.0864537E-1,3.612732E-1,1.3304855E-1],"categories":[],"categories_nodes":[],"categories_segments":[],"categories_sizes":[],"default_left":[1,1,1,1,1,1,1,0,0,0,1,1,1,1,1,0,0,0,0,1,0,1,1,1,1,0,0,0,0,1,1,1,0,1,1,1,1,1,0,1,0,1,1,0,0,0,0,0,0,1,0,1,0,1,0,1,0,0,0,1,0,0,1,0,0,1,0,0,1,0,0,0,0],"id":11,"left_children":[1,3,5,7,9,11,13,-1,-1,-1,15,17,19,21,23,-1,-1,-1,-1,25,-1,27,29,31,33,-1,-1,-1,-1,35,37,39,-1,41,43,45,47,49,-1,51,-1,53,55,-1,-1,-1,-1,-1,-1,57,-1,59,-1,61,-1,63,-1,-1,-1,65,-1,-1,67,-1,-1,69,-1,-1,71,-1,-1,-1,-1],"loss_changes":[1.0583543E4,1.2127695E3,1.6037661E3,8.929883E1,2.1058789E2,1.7733643E2,2.1453845E2,0E0,0E0,0E0,3.4472656E0,1.3171875E1,7.88208E0,2.6773071E1,2.0979568E1,0E0,0E0,0E0,0E0,1.8798828E-2,0E0,5.8343506E-1,1.636322E0,1.3600311E0,1.2305832E-1,0E0,0E0,0E0,0E0,1.0069275E0,4.62883E-1,4.5053864E-1,0E0,4.185295E-2,2.5589228E-2,6.497724E-1,1.8096924E-2,5.4997253E-1,0E0,3.5788727E-1,0E0,3.3909798E-2,5.9280396E-3,0E0,0E0,0E0,0E0,0E0,0E0,3.608322E-1,0E0,1.7339325E-1,0E0,3.6001682E-2,0E0,7.5439215E-3,0E0,0E0,0E0,7.910156E-2,0E0,0E0,2.5516033E-2,0E0,0E0,1.9294739E-2,0E0,0E0,2.3804665E-2,0E0,0E0,0E0,0E0],"parents":[2147483647,0,0,1,1,2,2,3,3,4,4,5,5,6,6,10,10,11,11,12,12,13,13,14,14,19,19,21,21,22,22,23,23,24,24,29,29,30,30,31,31,33,33,34,34,35,35,36,36,37,37,39,39,41,41,42,42,49,49,51,51,53,53,55,55,59,59,62,62,65,65,68,68],"right_children":[2,4,6,8,10,12,14,-1,-1,-1,16,18,20,22,24,-1,-1,-1,-1,26,-1,28,30,32,34,-1,-1,-1,-1,36,38,40,-1,42,44,46,48,50,-1,52,-1,54,56,-1,-1,-1,-1,-1,-1,58,-1,60,-1,62,-1,64,-1,-1,-1,66,-1,-1,68,-1,-1,70,-1,-1,72,-1,-1,-1,-1],"split_conditions":[-5.0224808E1,-5.872443E2,-3.7121863E2,-6.5245544E2,-5.6077167E2,-4.7444263E2,7.248041E1,1.0421649E0,8.7956774E-1,7.514991E-1,-4.6434485E2,-2.8357088E1,8.277175E0,-4.1899023E2,-9.810826E1,6.3976187E-1,5.619193E-1,4.961698E-1,4.2262965E-1,-3.1091679E1,2.918087E-1,1.3609021E2,1.2191984E2,-2.5672693E2,1.1640578E-1,1.0444992E-1,3.5776636E-1,2.4778472E-1,1.5469533E-1,-5.1862755E0,-7.503238E1,8.461811E1,4.2446896E-2,5.9848778E1,-5.1705585E0,-3.0310304E0,-1.1633428E1,1.6013167E2,1.1149412E-1,-3.871066E1,3.1942774E-2,1.951558E2,-3.9217883E2,2.2735491E-2,5.0551094E-2,5.6118728E-3,1.0475244E-1,5.5286884E-2,1.9042973E-1,2.469045E1,5.918045E-2,3.489409E1,5.0547816E-2,1.0519402E0,1.4772463E-2,1.3619168E2,1.38209015E-2,4.0989935E-2,1.6671406E-1,1.5486657E1,4.013811E-2,1.1947966E-2,-1.4965714E1,1.2946817E-2,2.7933791E-2,1.05738266E2,4.302397E-2,7.919746E-3,1.03330765E1,1.078071E-1,3.0864537E-2,3.612732E-2,1.3304855E-2],"split_indices":[103,90,93,91,92,92,97,0,0,0,89,103,97,92,95,0,0,0,0,0,0,100,101,88,43,0,0,0,0,53,35,103,0,104,55,0,4,99,0,190,0,82,91,0,0,0,0,0,0,19,0,185,0,113,0,239,0,0,0,164,0,0,59,0,0,127,0,0,51,0,0,0,0],"split_type":[0,0,0,0,0,0,0,0,0,0,0,0,0,0,0,0,0,0,0,0,0,0,0,0,0,0,0,0,0,0,0,0,0,0,0,0,0,0,0,0,0,0,0,0,0,0,0,0,0,0,0,0,0,0,0,0,0,0,0,0,0,0,0,0,0,0,0,0,0,0,0,0,0],"sum_hessian":[1.762E3,8.48E2,9.14E2,3.11E2,5.37E2,4.7E2,4.44E2,9.5E1,2.16E2,2.49E2,2.88E2,2.62E2,2.08E2,2.46E2,1.98E2,1.82E2,1.06E2,1.51E2,1.11E2,1.42E2,6.6E1,1.17E2,1.29E2,1E2,9.8E1,1E0,1.41E2,1.1E2,7E0,7.9E1,5E1,9.4E1,6E0,8.6E1,1.2E1,3E0,7.6E1,3.5E1,1.5E1,9.2E1,2E0,5.9E1,2.7E1,3E0,9E0,1E0,2E0,1E0,7.5E1,3.3E1,2E0,8.8E1,4E0,5.6E1,3E0,2.3E1,4E0,1E0,3.2E1,8.6E1,2E0,2E0,5.4E1,3E0,2E1,8.4E1,2E0,1E0,5.3E1,8.3E1,1E0,5.1E1,2E0],"tree_param":{"num_deleted":"0","num_feature":"250","num_nodes":"73","size_leaf_vector":"0"}},{"base_weights":[4.6692386E0,7.0228114E0,2.5964305E0,8.553755E0,6.250164E0,3.7928731E0,1.3529329E0,1.0218176E1,8.234051E0,6.920309E0,5.6599736E0,4.390049E0,3.2260323E0,1.9541843E0,6.591274E-1,3.5318983E0,2.8892164E0,2.3350117E0,1.6792334E0,9.873147E-1,3.3978522E-1,2.9076612E0,1.1760479E0,2.3475096E0,5.4261017E-1,1.8353275E0,1.4911448E0,1.0746018E0,8.028378E-1,6.209556E-1,2.9943168E-1,8.299153E-1,2.917974E0,8.9794856E-1,1.5314665E0,9.4219536E-1,1.2456713E0,8.1195587E-1,2.3273373E-1,7.472334E-1,2.6946455E-1,2.6349214E-1,3.4585518E-1,2.9284112E0,8.3275557E-1,1.5573817E0,7.4043286E-1,3.6589852E-1,9.6138304E-1,2.774284E-1,1.6606805E-1,2.0188901E-1,3.6532304E-1,1.5678092E0,4.5544243E-1,5.331278E-2,9.5170194E-1,9.796212E-1,4.038264E-1,2.310807E-1,3.280194E-1,1.7759228E-1,3.1175017E-2,3.7823495E-1,1.7392504E-1,2.5036597E-1,1.4675042E-1,1.5188949E-1,3.886074E-1,1.0518213E-1,2.5918433E-1,3.9454752E-1,1.1114228E-1],"categories":[],"categories_nodes":[],"categories_segments":[],"categories_sizes":[],"default_left":[1,1,1,1,1,1,1,0,0,0,0,0,1,1,1,0,1,1,1,1,1,1,0,0,0,0,1,1,1,1,1,0,1,0,1,1,0,0,0,0,0,1,1,0,0,1,1,0,1,1,1,0,1,0,0,0,0,0,0,1,0,0,0,1,0,1,0,0,1,0,0,0,0],"id":12,"left_children":[1,3,5,7,9,11,13,-1,-1,-1,-1,-1,15,17,19,-1,21,23,25,27,29,31,-1,-1,-1,-1,33,35,37,39,41,-1,43,-1,45,47,-1,-1,-1,-1,-1,49,51,-1,-1,53,55,-1,57,59,61,-1,63,-1,-1,-1,-1,-1,-1,65,-1,-1,-1,67,-1,69,-1,-1,71,-1,-1,-1,-1],"loss_changes":[8.58257E3,9.2241016E2,1.3918877E3,6.1666016E1,1.791543E2,1.4764209E2,1.9143597E2,0E0,0E0,0E0,0E0,0E0,1.5447754E1,2.1942078E1,2.23022E1,0E0,4.9890137E-1,9.8876953E-1,1.5791016E0,8.4413147E-1,1.0734968E0,1.9238281E-1,0E0,0E0,0E0,0E0,3.4695435E-1,3.8923645E-1,8.563995E-3,3.75659E-1,7.404518E-2,0E0,1.9482422E-1,0E0,1.9985962E-1,1.2371445E-1,0E0,0E0,0E0,0E0,0E0,3.5391808E-2,3.8353443E-2,0E0,0E0,9.841919E-3,5.2993107E-1,0E0,2.1324158E-2,4.3784857E-2,1.0008901E-2,0E0,1.8240452E-2,0E0,0E0,0E0,0E0,0E0,0E0,1.2048602E-2,0E0,0E0,0E0,1.3755798E-2,0E0,2.184987E-3,0E0,0E0,3.9458275E-3,0E0,0E0,0E0,0E0],"parents":[2147483647,0,0,1,1,2,2,3,3,4,4,5,5,6,6,12,12,13,13,14,14,16,16,17,17,18,18,19,19,20,20,21,21,26,26,27,27,28,28,29,29,30,30,32,32,34,34,35,35,41,41,42,42,45,45,46,46,48,48,49,49,50,50,52,52,59,59,63,63,65,65,68,68],"right_children":[2,4,6,8,10,12,14,-1,-1,-1,-1,-1,16,18,20,-1,22,24,26,28,30,32,-1,-1,-1,-1,34,36,38,40,42,-1,44,-1,46,48,-1,-1,-1,-1,-1,50,52,-1,-1,54,56,-1,58,60,62,-1,64,-1,-1,-1,-1,-1,-1,66,-1,-1,-1,68,-1,70,-1,-1,72,-1,-1,-1,-1],"split_conditions":[-2.8130085E1,-7.635242E1,1.0530407E2,-1.6372607E2,-4.8235542E1,-4.2132874E2,-3.320458E2,1.0218176E0,8.234051E-1,6.920309E-1,5.6599736E-1,4.390049E-1,-4.8978833E2,6.704651E0,-2.1314447E2,3.5318983E-1,7.6749663E0,5.641078E1,-4.1213144E2,1.9429762E1,1.5556851E2,1.1004093E0,1.1760479E-1,2.3475097E-1,5.4261018E-2,1.8353276E-1,6.6993385E1,1.4111467E1,4.543893E1,-3.9996124E1,8.8196945E1,8.299153E-2,6.598606E1,8.979486E-2,5.3336617E1,-4.0307655E1,1.2456713E-1,8.1195585E-2,2.3273373E-2,7.472334E-2,2.6946455E-2,8.0318634E1,-2.5274445E2,2.9284114E-1,8.327556E-2,5.6650154E1,5.346085E1,3.6589853E-2,2.2088993E1,1.5302759E2,2.663646E1,2.0188902E-2,-3.0418933E2,1.5678093E-1,4.5544244E-2,5.331278E-3,9.517019E-2,9.796212E-2,4.038264E-2,1.2467869E2,3.280194E-2,1.7759228E-2,3.1175017E-3,4.6356506E1,1.7392505E-2,-6.417619E1,1.4675043E-2,1.5188949E-2,7.389142E0,1.0518214E-2,2.5918433E-2,3.9454754E-2,1.1114228E-2],"split_indices":[102,100,100,102,101,93,93,0,0,0,0,0,91,104,94,0,179,18,92,105,98,58,0,0,0,0,134,62,196,86,129,0,162,0,12,40,0,0,0,0,0,127,212,0,0,18,12,0,63,240,9,0,215,0,0,0,0,0,0,243,0,0,0,135,0,150,0,0,60,0,0,0,0],"split_type":[0,0,0,0,0,0,0,0,0,0,0,0,0,0,0,0,0,0,0,0,0,0,0,0,0,0,0,0,0,0,0,0,0,0,0,0,0,0,0,0,0,0,0,0,0,0,0,0,0,0,0,0,0,0,0,0,0,0,0,0,0,0,0,0,0,0,0,0,0,0,0,0,0],"sum_hessian":[1.762E3,8.24E2,9.38E2,2.73E2,5.51E2,4.77E2,4.61E2,3.9E1,2.34E2,2.53E2,2.98E2,2.29E2,2.48E2,2.46E2,2.15E2,1.25E2,1.23E2,1E2,1.46E2,1.05E2,1.1E2,1.21E2,2E0,9.9E1,1E0,7.5E1,7.1E1,6.8E1,3.7E1,1.2E1,9.8E1,1E0,1.2E2,6E0,6.5E1,4.2E1,2.6E1,3.6E1,1E0,8E0,4E0,5.9E1,3.9E1,1.19E2,1E0,6.2E1,3E0,2E0,4E1,5E1,9E0,6E0,3.3E1,6.1E1,1E0,1E0,2E0,3.8E1,2E0,2.9E1,2.1E1,8E0,1E0,3E1,3E0,2.2E1,7E0,2E0,2.8E1,2E0,2E1,2.7E1,1E0],"tree_param":{"num_deleted":"0","num_feature":"250","num_nodes":"73","size_leaf_vector":"0"}},{"base_weights":[4.205747E0,6.1037636E0,2.1176674E0,7.217149E0,5.0745573E0,3.070622E0,1.0743308E0,8.09337E0,6.653564E0,5.5191455E0,4.470311E0,3.5563736E0,2.5572891E0,1.5804591E0,5.475437E-1,9.632394E0,7.7569504E0,3.7968912E0,3.2794828E0,2.7606757E0,2.2564225E0,1.770756E0,1.317627E0,8.076408E-1,2.7666134E-1,1.9087211E0,1.5574921E0,1.3365239E0,5.7721275E-1,8.38047E-1,4.037052E-1,2.5806844E-1,3.7980896E-1,1.9222251E0,5.1547956E-1,4.2272902E-1,1.5717329E0,1.3611962E0,6.5965813E-1,5.064702E-2,7.358523E-1,8.53983E-1,3.8677824E-1,4.4938785E-1,1.6254397E-1,1.6464438E-1,2.667373E-1,1.8575951E-1,4.1944784E-1,8.071106E-1,1.9448143E0,1.369192E0,3.5276747E-1,8.6973923E-1,4.1532996E-1,2.7211887E-1,1.337429E-1,6.819819E-1,1.3866559E0,8.8212955E-1,3.9830345E-1,9.967486E-2,2.7552462E-1,1.3943535E0,3.9312172E-1,9.006783E-1,4.970658E-1,3.1006333E-1,2.4014205E-1,8.678904E-1,1.4261714E0,3.7832722E-1,9.0956324E-1,9.165927E-2,3.2119715E-1,2.5329575E-1,1.2338847E-1],"categories":[],"categories_nodes":[],"categories_segments":[],"categories_sizes":[],"default_left":[1,1,1,1,1,1,1,1,0,0,0,1,1,1,1,0,0,0,0,0,0,1,1,1,1,1,1,1,1,1,1,1,1,1,0,0,0,1,0,0,0,1,0,0,0,0,1,0,0,0,0,1,0,1,0,1,0,0,1,1,0,0,1,1,0,1,0,1,1,0,0,0,0,0,0,0,0],"id":13,"left_children":[1,3,5,7,9,11,13,15,-1,-1,-1,17,19,21,23,-1,-1,-1,-1,-1,-1,25,27,29,31,33,35,37,39,41,43,45,47,49,-1,-1,-1,51,-1,-1,-1,53,-1,-1,-1,-1,55,-1,-1,-1,-1,57,-1,59,-1,61,-1,-1,63,65,-1,-1,67,69,-1,71,-1,73,75,-1,-1,-1,-1,-1,-1,-1,-1],"loss_changes":[6.974209E3,1.02104297E3,8.3286743E2,1.6392773E2,1.0508203E2,1.00370605E2,1.0658325E2,1.2264648E1,0E0,0E0,0E0,2.39917E0,7.0494385E0,7.920105E0,1.3797245E1,0E0,0E0,0E0,0E0,0E0,0E0,4.4024658E-1,4.8779297E-1,9.021759E-1,9.1846466E-2,2.5086975E-1,1.59729E-1,5.5496216E-1,2.9686797E-1,3.3849335E-1,2.6106596E-2,2.654314E-2,2.2078395E-2,6.764221E-2,0E0,0E0,0E0,1.8623352E-1,0E0,0E0,0E0,2.5389862E-1,0E0,0E0,0E0,0E0,1.9432068E-2,0E0,0E0,0E0,0E0,3.845215E-2,0E0,1.4515686E-1,0E0,1.599741E-2,0E0,0E0,5.6015015E-2,1.3798523E-1,0E0,0E0,1.3529301E-2,6.880188E-2,0E0,1.3244629E-2,0E0,5.0804377E-2,3.0175924E-2,0E0,0E0,0E0,0E0,0E0,0E0,0E0,0E0],"parents":[2147483647,0,0,1,1,2,2,3,3,4,4,5,5,6,6,7,7,11,11,12,12,13,13,14,14,21,21,22,22,23,23,24,24,25,25,26,26,27,27,28,28,29,29,30,30,31,31,32,32,33,33,37,37,41,41,46,46,51,51,53,53,55,55,58,58,59,59,62,62,63,63,65,65,67,67,68,68],"right_children":[2,4,6,8,10,12,14,16,-1,-1,-1,18,20,22,24,-1,-1,-1,-1,-1,-1,26,28,30,32,34,36,38,40,42,44,46,48,50,-1,-1,-1,52,-1,-1,-1,54,-1,-1,-1,-1,56,-1,-1,-1,-1,58,-1,60,-1,62,-1,-1,64,66,-1,-1,68,70,-1,72,-1,74,76,-1,-1,-1,-1,-1,-1,-1,-1],"split_conditions":[-3.4636127E2,-1.2544886E2,6.1737247E1,-1.4677673E2,-7.1202545E1,-2.8466383E1,7.248041E1,-1.8434268E2,6.653564E-1,5.519146E-1,4.470311E-1,-5.6915802E1,-4.4712704E2,-3.438683E2,-9.810826E1,9.632394E-1,7.75695E-1,3.7968913E-1,3.279483E-1,2.7606758E-1,2.2564225E-1,3.980339E1,5.3336617E1,-2.5835425E2,1.1640578E-1,5.068622E1,-6.937093E0,1.3450618E2,5.346085E1,8.3571976E1,-4.0350666E0,6.609297E1,-5.1705585E0,3.4363113E1,5.1547956E-2,4.2272903E-2,1.5717329E-1,-1.5650363E2,6.596582E-2,5.064702E-3,7.3585235E-2,-3.871066E1,3.8677823E-2,4.4938784E-2,1.6254397E-2,1.6464438E-2,-3.8747693E2,1.8575951E-2,4.1944783E-2,8.071106E-2,1.9448143E-1,9.5040245E0,3.527675E-2,4.2909744E1,4.1532997E-2,1.0519402E0,1.337429E-2,6.81982E-2,1.7410835E1,-7.789593E1,3.9830346E-2,9.967486E-3,2.911489E1,7.946078E1,3.9312173E-2,3.4846996E1,4.9706582E-2,1.2081358E2,3.1371346E0,8.678904E-2,1.4261715E-1,3.7832722E-2,9.095632E-2,9.165927E-3,3.2119717E-2,2.5329575E-2,1.2338847E-2],"split_indices":[88,105,102,106,103,104,97,98,0,0,0,105,92,93,95,0,0,0,0,0,0,103,12,88,43,85,105,101,12,103,59,133,55,13,0,0,0,87,0,0,0,190,0,0,0,0,91,0,0,0,0,22,0,10,0,113,0,0,46,167,0,0,182,133,0,85,0,84,155,0,0,0,0,0,0,0,0],"split_type":[0,0,0,0,0,0,0,0,0,0,0,0,0,0,0,0,0,0,0,0,0,0,0,0,0,0,0,0,0,0,0,0,0,0,0,0,0,0,0,0,0,0,0,0,0,0,0,0,0,0,0,0,0,0,0,0,0,0,0,0,0,0,0,0,0,0,0,0,0,0,0,0,0,0,0,0,0],"sum_hessian":[1.762E3,9.22E2,8.4E2,4.4E2,4.82E2,4.38E2,4.02E2,1.67E2,2.73E2,2.73E2,2.09E2,2.22E2,2.16E2,2.04E2,1.98E2,2.5E1,1.42E2,1.12E2,1.1E2,1.24E2,9.2E1,1.15E2,8.9E1,1E2,9.8E1,6.5E1,5E1,8.6E1,3E0,9.2E1,8E0,8.6E1,1.2E1,6.4E1,1E0,1E0,4.9E1,8.2E1,4E0,1E0,2E0,8.8E1,4E0,6E0,2E0,9E0,7.7E1,3E0,9E0,2E0,6.2E1,8.1E1,1E0,8.4E1,4E0,7.3E1,4E0,3E0,7.8E1,8.1E1,3E0,2E0,7.1E1,7.7E1,1E0,7.6E1,5E0,3.2E1,3.9E1,6E0,7.1E1,2E0,7.4E1,2E0,3E1,3.4E1,5E0],"tree_param":{"num_deleted":"0","num_feature":"250","num_nodes":"77","size_leaf_vector":"0"}},{"base_weights":[3.7886863E0,5.6273265E0,2.0393152E0,6.91884E0,4.970622E0,2.9682117E0,1.0552424E0,8.336123E0,6.655571E0,5.548828E0,4.4691453E0,3.3643281E0,2.4218233E0,1.5092914E0,4.9549794E-1,4.6915345E0,4.05294E0,3.6394114E0,3.0887923E0,2.5237882E0,1.9534181E0,1.741637E0,1.2441872E0,7.304385E-1,2.508061E-1,3.0994055E0,8.067789E-1,1.4559208E0,2.5488424E0,5.4116106E-1,1.9757539E0,1.8389528E0,1.4653199E0,1.3818017E0,1.1042987E0,7.5317484E-1,3.1752577E-1,2.3362663E-1,3.4648356E-1,8.4129524E-1,3.1096723E0,2.556336E0,6.974125E-1,1.8590248E0,6.3719195E-1,1.333757E0,9.905041E-1,7.6188403E-1,2.3213053E-1,2.5129542E-1,1.8742114E-1,1.7182758E-1,3.816976E-1,9.0640163E-1,3.1191385E0,1.8977242E0,1.0138458E0,2.515653E-1,1.0183748E0,7.701028E-1,2.5862023E-1,2.554E-1,8.8175155E-2,1.9350745E-1,7.2199546E-2,5.1785064E-1,1.9082366E0,3.2923317E-1,4.8114777E-2,1.1865814E0,8.4307456E-1,7.82929E-1,3.9290643E-1,5.2478313E-2,2.5803936E-1,2.10981E-1,1.2781933E-1,9.424479E-1,1.9329823E0,5.837557E-1,1.2586238E0,2.2102654E-1,8.597838E-1,7.8748405E-1,1.9559813E-1,1.1344448E-1,2.6397157E-1,7.9520863E-1,3.0869994E-1,2.7056327E-1,1.13934755E-1],"categories":[],"categories_nodes":[],"categories_segments":[],"categories_sizes":[],"default_left":[1,1,1,1,1,1,1,0,0,0,1,1,1,1,1,0,0,0,1,1,1,1,1,1,1,1,0,0,1,0,0,1,0,0,1,1,0,1,1,0,1,0,0,1,0,0,1,1,0,1,1,0,0,0,0,1,0,1,1,1,0,1,0,1,0,0,1,0,0,1,1,1,0,0,1,0,0,0,0,0,0,0,0,1,0,0,1,0,0,0,0],"id":14,"left_children":[1,3,5,7,9,11,13,-1,-1,-1,15,17,19,21,23,-1,-1,-1,25,27,29,31,33,35,37,39,-1,-1,41,-1,-1,43,-1,-1,45,47,-1,49,51,-1,53,-1,-1,55,-1,-1,57,59,-1,61,63,-1,-1,-1,-1,65,-1,67,69,71,-1,73,-1,75,-1,-1,77,-1,-1,79,81,83,-1,-1,85,-1,-1,-1,-1,-1,-1,-1,-1,87,-1,-1,89,-1,-1,-1,-1],"loss_changes":[5.6591484E3,6.94166E2,8.241299E2,5.160547E1,1.4134668E2,9.249365E1,1.1133298E2,0E0,0E0,0E0,9.864258E0,8.996094E0,4.574341E0,1.2800842E1,1.1256924E1,0E0,0E0,0E0,8.9001465E-1,5.699463E-1,1.9256592E-1,7.2036743E-1,7.264099E-1,7.090416E-1,8.1777096E-2,6.064453E-1,0E0,0E0,3.6761475E-1,0E0,0E0,9.8638916E-1,0E0,0E0,3.2389832E-1,2.5424576E-1,0E0,2.3928165E-2,1.4368176E-2,0E0,5.102539E-2,0E0,0E0,9.5428467E-1,0E0,0E0,6.9116974E-1,1.8550873E-1,0E0,1.7652512E-2,5.664468E-3,0E0,0E0,0E0,0E0,2.1582031E-1,0E0,3.156373E-2,2.9703522E-1,1.3263321E-1,0E0,1.7522097E-2,0E0,2.8754473E-3,0E0,0E0,1.3800049E-1,0E0,0E0,1.3385391E-1,6.9812775E-2,7.872772E-2,0E0,0E0,1.8946886E-2,0E0,0E0,0E0,0E0,0E0,0E0,0E0,0E0,7.258606E-2,0E0,0E0,2.2578955E-2,0E0,0E0,0E0,0E0],"parents":[2147483647,0,0,1,1,2,2,3,3,4,4,5,5,6,6,10,10,11,11,12,12,13,13,14,14,18,18,19,19,20,20,21,21,22,22,23,23,24,24,25,25,28,28,31,31,34,34,35,35,37,37,38,38,40,40,43,43,46,46,47,47,49,49,50,50,55,55,57,57,58,58,59,59,61,61,63,63,66,66,69,69,70,70,71,71,74,74,83,83,86,86],"right_children":[2,4,6,8,10,12,14,-1,-1,-1,16,18,20,22,24,-1,-1,-1,26,28,30,32,34,36,38,40,-1,-1,42,-1,-1,44,-1,-1,46,48,-1,50,52,-1,54,-1,-1,56,-1,-1,58,60,-1,62,64,-1,-1,-1,-1,66,-1,68,70,72,-1,74,-1,76,-1,-1,78,-1,-1,80,82,84,-1,-1,86,-1,-1,-1,-1,-1,-1,-1,-1,88,-1,-1,90,-1,-1,-1,-1],"split_conditions":[-5.1624976E2,-6.203306E2,-3.711454E2,-6.565445E2,-5.0470837E2,-4.4925903E1,7.248041E1,8.336124E-1,6.655571E-1,5.548828E-1,-4.642915E2,-4.5583633E1,-2.3163815E1,1.467305E1,-9.810826E1,4.6915346E-1,4.05294E-1,3.6394116E-1,1.1053522E1,-1.983428E1,3.1415447E1,-3.8033252E2,-1.3584946E2,-2.5672693E2,1.1640578E-1,5.7228333E1,8.067789E-2,1.4559208E-1,2.5284084E1,5.4116108E-2,1.9757539E-1,1.10359764E2,1.4653198E-1,1.3818018E-1,5.892801E1,8.461811E1,3.175258E-2,5.9848778E1,-5.1705585E0,8.412953E-2,-7.3720746E0,2.556336E-1,6.974125E-2,1.408945E2,6.37192E-2,1.333757E-1,-3.8336998E1,-4.2139145E1,2.3213053E-2,1.03330765E1,-3.310016E2,1.7182758E-2,3.816976E-2,9.0640165E-2,3.1191385E-1,9.943881E1,1.0138458E-1,-1.4983316E1,-6.2702625E1,4.2909744E1,2.5862023E-2,-1.4965714E1,8.817515E-3,6.3914707E1,7.219955E-3,5.1785063E-2,1.0886389E2,3.292332E-2,4.811478E-3,1.6308151E1,4.016629E1,-4.4339897E1,3.9290644E-2,5.2478313E-3,1.1461357E1,2.10981E-2,1.2781933E-2,9.424479E-2,1.9329824E-1,5.8375567E-2,1.2586239E-1,2.2102654E-2,8.597838E-2,1.5486657E1,1.9559814E-2,1.1344448E-2,1.951558E2,7.952087E-2,3.0869994E-2,2.7056327E-2,1.1393475E-2],"split_indices":[90,91,93,92,93,105,97,0,0,0,89,97,105,104,95,0,0,0,221,0,17,89,95,88,43,117,0,0,180,0,0,101,0,0,71,103,0,104,55,0,3,0,0,242,0,0,40,192,0,51,89,0,0,0,0,198,0,0,37,10,0,59,0,159,0,0,223,0,0,114,16,143,0,0,115,0,0,0,0,0,0,0,0,164,0,0,82,0,0,0,0],"split_type":[0,0,0,0,0,0,0,0,0,0,0,0,0,0,0,0,0,0,0,0,0,0,0,0,0,0,0,0,0,0,0,0,0,0,0,0,0,0,0,0,0,0,0,0,0,0,0,0,0,0,0,0,0,0,0,0,0,0,0,0,0,0,0,0,0,0,0,0,0,0,0,0,0,0,0,0,0,0,0,0,0,0,0,0,0,0,0,0,0,0,0],"sum_hessian":[1.762E3,8.58E2,9.04E2,2.86E2,5.72E2,4.64E2,4.4E2,4E1,2.46E2,2.61E2,3.11E2,2.66E2,1.98E2,2.42E2,1.98E2,1.96E2,1.15E2,1.27E2,1.39E2,1.59E2,3.9E1,1.26E2,1.16E2,1E2,9.8E1,1.38E2,1E0,5E0,1.54E2,1E0,3.8E1,8.9E1,3.7E1,5.4E1,6.2E1,9.4E1,6E0,8.6E1,1.2E1,1E0,1.37E2,1.53E2,1E0,8.7E1,2E0,1.7E1,4.5E1,9.2E1,2E0,5.9E1,2.7E1,3E0,9E0,1E0,1.36E2,8.2E1,5E0,2E0,4.3E1,9E1,2E0,5.7E1,2E0,2.5E1,2E0,1E0,8.1E1,1E0,1E0,1.9E1,2.4E1,8.6E1,4E0,1E0,5.6E1,1.8E1,7E0,3E0,7.8E1,3E0,1.6E1,1E0,2.3E1,8.5E1,1E0,3E0,5.3E1,8.3E1,2E0,5E1,3E0],"tree_param":{"num_deleted":"0","num_feature":"250","num_nodes":"91","size_leaf_vector":"0"}},{"base_weights":[3.41336E0,5.117677E0,1.881302E0,6.2746053E0,4.5434957E0,2.7124944E0,9.53489E-1,7.628462E0,6.037768E0,4.982494E0,4.0379057E0,3.0658226E0,2.1848395E0,1.3635168E0,4.4801033E-1,4.199204E0,3.6639242E0,3.3193882E0,2.8018916E0,2.255373E0,1.6493711E0,1.5725989E0,1.1249105E0,6.557041E-1,2.2285087E-1,2.8104658E0,7.664399E-1,1.8576452E0,2.3253326E0,1.7012489E0,6.6726637E-1,1.6606622E0,1.3226439E0,1.2675005E0,1.0035219E0,6.7846036E-1,3.0066612E-1,1.9353352E-1,2.5978974E-1,2.3403635E0,8.3875847E-1,1.6781303E0,5.9471244E-1,3.7641716E-1,1.3380442E0,6.2884295E-1,1.3093655E0,1.0551436E0,5.9860206E-1,5.482254E-1,7.293516E-1,3.1898698E-1,8.621001E-2,2.0870398E-1,1.1798817E-1,1.4364865E-1,2.7606025E-1,2.353909E0,9.2811793E-1,1.7120398E0,9.2935866E-1,4.9127832E-1,1.3353859E0,3.7152258E-1,1.0726123E0,5.929632E-1,2.6299074E-1,7.4342227E-1,3.2540023E-1,1.770746E-1,2.4982493E-1,9.91863E-3,1.2691098E-1,1.5191521E-1,2.9222614E-1,4.9195814E-1,1.7209195E0,3.097334E-1,1.3520352E0,4.5709133E-2,5.1157475E-1,1.6242015E-1,7.501736E-1,2.0623815E-1,1.2901352E-1,3.4348103E-1,2.2911394E-1,7.854462E-1,1.4059167E0,7.653541E-1,3.3871794E-1,9.282437E-2,2.239108E-1,3.750182E-1,1.708836E-1,6.585158E-1,8.675878E-1],"categories":[],"categories_nodes":[],"categories_segments":[],"categories_sizes":[],"default_left":[1,1,1,1,1,1,1,0,0,0,1,1,1,1,1,0,0,0,1,1,1,1,1,1,1,0,0,0,1,0,0,1,1,1,1,1,1,1,1,1,0,1,0,0,0,0,1,1,0,1,1,0,0,1,1,0,1,0,0,1,0,0,1,1,0,0,0,1,0,1,0,0,0,0,1,0,0,0,1,0,0,0,1,1,0,1,0,0,0,1,0,0,0,0,0,0,0],"id":15,"left_children":[1,3,5,7,9,11,13,-1,-1,-1,15,17,19,21,23,-1,-1,-1,25,27,29,31,33,35,37,-1,-1,-1,39,-1,-1,41,43,45,47,49,51,53,55,57,-1,59,-1,-1,-1,-1,61,63,-1,65,67,-1,-1,69,71,-1,73,-1,-1,75,-1,-1,77,79,-1,-1,-1,81,-1,83,-1,-1,-1,-1,85,-1,-1,-1,87,-1,-1,-1,89,91,-1,93,-1,-1,-1,95,-1,-1,-1,-1,-1,-1,-1],"loss_changes":[4.5937656E3,5.2550586E2,7.146218E2,4.179785E1,1.04396484E2,8.4654785E1,9.0790924E1,0E0,0E0,0E0,6.6064453E-1,1.0174561E1,3.8337402E0,1.0353821E1,9.159954E0,0E0,0E0,0E0,4.4641113E-1,5.218506E-1,2.4044037E-1,5.9906006E-1,7.531738E-1,6.2818146E-1,5.4768085E-2,0E0,0E0,0E0,1.2545776E0,0E0,0E0,6.7781067E-1,5.0071716E-2,5.1348877E-1,7.8977203E-1,2.3642349E-1,3.932297E-3,4.1846514E-2,3.593135E-2,5.317993E-1,0E0,6.4328E-1,0E0,0E0,0E0,0E0,3.2315063E-1,3.0608368E-1,0E0,2.3964024E-1,1.3322449E-1,0E0,0E0,1.6891956E-2,1.0312632E-2,0E0,2.3841381E-2,0E0,0E0,5.256653E-2,0E0,0E0,3.325882E-1,1.1350897E-1,0E0,0E0,0E0,1.2527847E-1,0E0,1.5441477E-2,0E0,0E0,0E0,0E0,1.5113115E-2,0E0,0E0,0E0,2.0845795E-1,0E0,0E0,0E0,1.2801743E-1,1.3289034E-2,0E0,1.2120843E-2,0E0,0E0,0E0,7.310867E-2,0E0,0E0,0E0,0E0,0E0,0E0,0E0],"parents":[2147483647,0,0,1,1,2,2,3,3,4,4,5,5,6,6,10,10,11,11,12,12,13,13,14,14,18,18,19,19,20,20,21,21,22,22,23,23,24,24,28,28,31,31,32,32,33,33,34,34,35,35,36,36,37,37,38,38,39,39,41,41,46,46,47,47,49,49,50,50,53,53,54,54,56,56,59,59,62,62,63,63,67,67,69,69,74,74,78,78,82,82,83,83,85,85,89,89],"right_children":[2,4,6,8,10,12,14,-1,-1,-1,16,18,20,22,24,-1,-1,-1,26,28,30,32,34,36,38,-1,-1,-1,40,-1,-1,42,44,46,48,50,52,54,56,58,-1,60,-1,-1,-1,-1,62,64,-1,66,68,-1,-1,70,72,-1,74,-1,-1,76,-1,-1,78,80,-1,-1,-1,82,-1,84,-1,-1,-1,-1,86,-1,-1,-1,88,-1,-1,-1,90,92,-1,94,-1,-1,-1,96,-1,-1,-1,-1,-1,-1,-1],"split_conditions":[-8.003311E1,-7.635242E1,-3.711454E2,-1.4686066E2,-1.0562361E2,2.170281E1,7.248041E1,7.628462E-1,6.037768E-1,4.9824938E-1,-3.6140698E2,1.27289505E1,-2.66299E1,1.467305E1,8.758098E0,4.199204E-1,3.6639243E-1,3.3193883E-1,1.1053522E1,1.1767977E1,1.2961245E1,-3.8033252E2,8.545802E1,-2.5672693E2,8.8196945E1,2.810466E-1,7.6643996E-2,1.8576452E-1,7.6749663E0,1.7012489E-1,6.672664E-2,1.10359764E2,2.257706E1,1.2015802E1,1.2879639E2,-2.4906046E2,-1.4565706E2,8.277569E1,-1.4005893E2,1.6783643E2,8.387585E-2,1.408945E2,5.9471246E-2,3.7641715E-2,1.3380443E-1,6.288429E-2,-6.4073326E1,-3.8336998E1,5.9860207E-2,-2.1470992E2,1.2218447E2,3.18987E-2,8.621002E-3,1.4549524E2,8.282678E1,1.4364866E-2,6.709218E1,2.353909E-1,9.281179E-2,9.943881E1,9.293587E-2,4.9127832E-2,7.093055E0,-6.006694E0,1.0726123E-1,5.929632E-2,2.6299074E-2,3.4846996E1,3.2540023E-2,9.368666E1,2.4982493E-2,9.918631E-4,1.2691098E-2,1.5191521E-2,-1.3055663E2,4.9195815E-2,1.7209195E-1,3.097334E-2,-7.322652E1,4.5709135E-3,5.1157475E-2,1.6242016E-2,8.3571976E1,-1.5291853E1,1.2901353E-2,1.927898E2,2.2911394E-2,7.8544624E-2,1.4059167E-1,5.904785E1,3.3871796E-2,9.282437E-3,2.2391079E-2,3.7501823E-2,1.708836E-2,6.5851584E-2,8.6758785E-2],"split_indices":[106,100,93,101,106,102,97,0,0,0,88,98,106,104,96,0,0,0,221,57,48,89,233,88,129,0,0,0,179,0,0,101,19,62,101,212,87,128,210,80,0,242,0,0,0,0,38,40,0,94,198,0,0,241,128,0,197,0,0,198,0,0,23,0,0,0,0,85,0,103,0,0,0,0,210,0,0,0,209,0,0,0,103,0,0,100,0,0,0,68,0,0,0,0,0,0,0],"split_type":[0,0,0,0,0,0,0,0,0,0,0,0,0,0,0,0,0,0,0,0,0,0,0,0,0,0,0,0,0,0,0,0,0,0,0,0,0,0,0,0,0,0,0,0,0,0,0,0,0,0,0,0,0,0,0,0,0,0,0,0,0,0,0,0,0,0,0,0,0,0,0,0,0,0,0,0,0,0,0,0,0,0,0,0,0,0,0,0,0,0,0,0,0,0,0,0,0],"sum_hessian":[1.762E3,8.33E2,9.29E2,2.73E2,5.6E2,4.89E2,4.4E2,3.6E1,2.37E2,2.95E2,2.65E2,2.9E2,1.99E2,2.42E2,1.98E2,1.78E2,8.7E1,1.42E2,1.48E2,1.73E2,2.6E1,1.26E2,1.16E2,1.02E2,9.6E1,1.47E2,1E0,3E1,1.43E2,2.4E1,2E0,8.9E1,3.7E1,4.9E1,6.7E1,9.5E1,7E0,5.7E1,3.9E1,1.41E2,2E0,8.7E1,2E0,1E0,3.6E1,4E0,4.5E1,5.8E1,9E0,3E1,6.5E1,6E0,1E0,4.6E1,1.1E1,6E0,3.3E1,1.39E2,2E0,8.2E1,5E0,2E0,4.3E1,2E0,5.6E1,2.5E1,5E0,6.2E1,3E0,2.9E1,1.7E1,1E0,1E1,5E0,2.8E1,1E0,8.1E1,1E0,4.2E1,1E0,1E0,1E0,6.1E1,1.6E1,1.3E1,1.3E1,1.5E1,5E0,3.7E1,5.8E1,3E0,3E0,1.3E1,1E1,3E0,3.2E1,2.6E1],"tree_param":{"num_deleted":"0","num_feature":"250","num_nodes":"97","size_leaf_vector":"0"}},{"base_weights":[3.0753465E0,4.6309547E0,1.7146401E0,5.6271453E0,4.094625E0,2.4780238E0,8.8159597E-1,6.9435544E0,5.4211636E0,4.5401316E0,3.712258E0,2.8642716E0,2.0848708E0,1.2507522E0,4.059815E-1,3.8112853E0,3.2108438E0,3.0923262E0,2.6681128E0,2.224086E0,1.7423726E0,1.5051875E0,1.0613502E0,5.975475E-1,2.0644474E-1,6.8153524E-1,2.6775696E0,2.348691E0,1.9771165E0,1.8482208E0,1.2986276E0,1.5426184E0,1.0416827E0,1.1450449E0,8.8814783E-1,6.192673E-1,3.0671513E-1,1.7427929E-1,2.3971625E-1,2.3577433E0,6.855345E-1,1.861915E0,5.2697897E-1,7.369882E-1,1.5606818E0,5.6584E-1,1.170373E0,9.668141E-1,6.458063E-1,4.3108228E-1,6.4715976E-1,3.6440173E-1,1.435065E-1,2.1851769E-1,1.516615E-1,1.8067218E-1,2.9090497E-1,7.426952E-1,1.5796959E0,6.6163856E-1,4.3423653E-2,5.1553273E-1,1.1866537E0,3.4016714E-1,9.921787E-1,6.6485405E-1,1.8004513E-1,4.4820645E-1,9.567201E-2,6.60334E-1,2.3505938E-1,2.3452918E-1,7.0958175E-2,6.797308E-2,1.567474E-1,1.972279E-1,9.8133765E-2,1.07754074E-1,3.032168E-1,1.5992349E0,7.597978E-1,3.0838466E-1,1.1931297E0,1.0176283E0,3.7302375E-1,5.771955E-1,7.5661206E-1,2.4261035E-1,6.473708E-2,1.638802E-1,7.9748E-2,4.462099E-2,2.032271E-1,3.264121E-1,1.6370928E-1,1.1992764E0,3.2917833E-1,4.1515288E-1,1.0423095E0,5.9880346E-1,3.3694324E-1,1.5429914E-1,7.7106416E-1,7.270634E-2,1.7080486E-1,9.4227195E-3,9.497364E-2,2.0915143E-1,5.1256835E-2,4.98024E-1,1.2099174E0,4.3776226E-1,1.0680206E0,6.158714E-1,2.91224E-1,7.8622395E-1,1.5813506E-1,1.7590196E-1,6.799599E-2],"categories":[],"categories_nodes":[],"categories_segments":[],"categories_sizes":[],"default_left":[1,1,1,1,1,1,1,0,0,0,1,1,1,1,1,0,0,0,1,1,1,1,1,1,1,0,0,1,0,1,0,1,0,1,1,1,1,1,1,0,0,0,0,0,1,1,1,1,1,1,1,0,0,1,1,1,1,0,1,0,0,0,1,0,1,0,0,0,0,1,0,1,0,0,1,1,0,0,1,0,0,0,1,1,0,1,1,0,0,1,1,0,1,0,0,1,0,0,1,1,0,0,1,0,1,0,0,0,0,0,0,0,0,0,0,0,0,0,0],"id":16,"left_children":[1,3,5,7,9,11,13,-1,-1,-1,15,17,19,21,23,-1,-1,-1,25,27,29,31,33,35,37,-1,-1,39,-1,41,-1,43,-1,45,47,49,51,53,55,-1,-1,-1,-1,-1,57,59,61,63,65,67,69,-1,-1,71,73,75,77,-1,79,-1,-1,-1,81,-1,83,-1,-1,-1,-1,85,-1,87,-1,-1,89,91,-1,-1,93,-1,-1,-1,95,97,-1,99,101,-1,-1,103,105,-1,107,-1,-1,109,-1,-1,111,113,-1,-1,115,-1,117,-1,-1,-1,-1,-1,-1,-1,-1,-1,-1,-1,-1,-1,-1],"loss_changes":[3.7238477E3,4.1614453E2,5.968633E2,3.9637695E1,7.479199E1,6.858911E1,7.88526E1,0E0,0E0,0E0,2.4106445E0,2.7093506E0,7.9019775E0,1.0642853E1,7.483303E0,0E0,0E0,0E0,7.86438E-1,6.49353E-1,1.1695251E0,2.3210144E-1,1.1429596E0,4.4805908E-1,6.417179E-2,0E0,0E0,2.4719238E-2,0E0,8.633423E-2,0E0,2.4684143E-1,0E0,7.6075745E-1,3.8602066E-1,2.0917511E-1,3.2440603E-2,2.0890355E-2,8.647156E-2,0E0,0E0,0E0,0E0,0E0,2.7322388E-1,2.7154982E-1,3.690796E-1,2.6649475E-1,2.2243977E-2,4.3273687E-2,2.7368164E-1,0E0,0E0,2.1160603E-2,5.9449673E-3,1.3440788E-2,1.9190311E-2,0E0,2.2669983E-1,0E0,0E0,0E0,1.3825226E-1,0E0,1.876564E-1,0E0,0E0,0E0,0E0,1.7162323E-1,0E0,3.5037398E-3,0E0,0E0,6.7029E-3,8.326769E-3,0E0,0E0,1.4517665E-2,0E0,0E0,0E0,7.254791E-2,7.28569E-2,0E0,3.1848907E-2,1.5957451E-1,0E0,0E0,7.7845454E-3,4.4588298E-3,0E0,5.4852962E-3,0E0,0E0,4.663849E-2,0E0,0E0,2.985382E-2,3.063488E-2,0E0,0E0,1.6371918E-1,0E0,3.2361746E-3,0E0,0E0,0E0,0E0,0E0,0E0,0E0,0E0,0E0,0E0,0E0,0E0,0E0,0E0],"parents":[2147483647,0,0,1,1,2,2,3,3,4,4,5,5,6,6,10,10,11,11,12,12,13,13,14,14,18,18,19,19,20,20,21,21,22,22,23,23,24,24,27,27,29,29,31,31,33,33,34,34,35,35,36,36,37,37,38,38,44,44,45,45,46,46,47,47,48,48,49,49,50,50,53,53,54,54,55,55,56,56,58,58,62,62,64,64,69,69,71,71,74,74,75,75,78,78,82,82,83,83,85,85,86,86,89,89,90,90,92,92,95,95,98,98,99,99,102,102,104,104],"right_children":[2,4,6,8,10,12,14,-1,-1,-1,16,18,20,22,24,-1,-1,-1,26,28,30,32,34,36,38,-1,-1,40,-1,42,-1,44,-1,46,48,50,52,54,56,-1,-1,-1,-1,-1,58,60,62,64,66,68,70,-1,-1,72,74,76,78,-1,80,-1,-1,-1,82,-1,84,-1,-1,-1,-1,86,-1,88,-1,-1,90,92,-1,-1,94,-1,-1,-1,96,98,-1,100,102,-1,-1,104,106,-1,108,-1,-1,110,-1,-1,112,114,-1,-1,116,-1,118,-1,-1,-1,-1,-1,-1,-1,-1,-1,-1,-1,-1,-1,-1],"split_conditions":[-7.2138275E1,-5.909363E2,-2.2159163E1,-6.716836E2,-5.647838E2,-5.509694E1,7.248041E1,6.943554E-1,5.4211634E-1,4.5401317E-1,-2.367126E2,1.5535782E2,-7.79319E1,-4.2320636E2,-9.810826E1,3.8112852E-1,3.2108438E-1,3.0923262E-1,8.49012E1,-2.1991215E1,8.7128784E1,4.0796017E1,1.2163506E2,-2.5835425E2,4.6649637E0,6.815352E-2,2.6775697E-1,1.8939874E2,1.9771165E-1,3.112991E1,1.2986277E-1,4.2048393E1,1.0416827E-1,2.1133297E1,-7.503238E1,-3.974461E0,-3.0788867E2,-3.2607334E1,7.554046E1,2.3577432E-1,6.855345E-2,1.861915E-1,5.2697897E-2,7.369882E-2,1.5462703E2,2.1383883E1,-3.0637426E1,1.1106979E1,-4.4094635E1,-4.143456E0,-3.6167053E1,3.6440175E-2,1.435065E-2,-3.812123E2,-3.1430042E1,8.1555915E-1,6.917327E1,7.4269526E-2,1.1633491E1,6.616386E-2,4.3423655E-3,5.1553275E-2,-1.399901E1,3.4016714E-2,1.6013167E2,6.6485405E-2,1.8004512E-2,4.4820648E-2,9.567201E-3,5.61083E1,2.350594E-2,1.9492224E2,7.0958175E-3,6.7973076E-3,1.7711977E2,-1.6970587E1,9.813377E-3,1.0775408E-2,-3.8218112E2,1.599235E-1,7.5979784E-2,3.0838465E-2,4.0291977E1,-4.8956223E0,3.7302375E-2,2.3423672E1,1.7296802E2,2.4261035E-2,6.4737084E-3,1.8962209E2,-1.1940481E1,4.462099E-3,3.7093818E0,3.2641213E-2,1.6370928E-2,-1.9018185E1,3.2917835E-2,4.1515287E-2,-4.1990593E1,-1.785089E1,3.3694323E-2,1.5429914E-2,1.05738266E2,7.270634E-3,-3.0390552E2,9.4227196E-4,9.497364E-3,2.0915143E-2,5.1256837E-3,4.98024E-2,1.20991744E-1,4.3776225E-2,1.0680206E-1,6.1587144E-2,2.9122401E-2,7.862239E-2,1.5813505E-2,1.7590197E-2,6.7995987E-3],"split_indices":[107,90,105,91,92,106,97,0,0,0,87,83,86,92,95,0,0,0,72,104,247,103,101,88,3,0,0,81,0,8,0,117,0,163,35,54,93,178,126,0,0,0,0,0,224,7,0,22,190,53,177,0,0,90,41,51,78,0,44,0,0,0,45,0,99,0,0,0,0,67,0,82,0,0,200,46,0,0,90,0,0,0,63,46,0,6,82,0,0,99,0,0,221,0,0,109,0,0,141,153,0,0,127,0,215,0,0,0,0,0,0,0,0,0,0,0,0,0,0],"split_type":[0,0,0,0,0,0,0,0,0,0,0,0,0,0,0,0,0,0,0,0,0,0,0,0,0,0,0,0,0,0,0,0,0,0,0,0,0,0,0,0,0,0,0,0,0,0,0,0,0,0,0,0,0,0,0,0,0,0,0,0,0,0,0,0,0,0,0,0,0,0,0,0,0,0,0,0,0,0,0,0,0,0,0,0,0,0,0,0,0,0,0,0,0,0,0,0,0,0,0,0,0,0,0,0,0,0,0,0,0,0,0,0,0,0,0,0,0,0,0],"sum_hessian":[1.762E3,8.21E2,9.41E2,2.84E2,5.37E2,4.9E2,4.51E2,3.4E1,2.5E2,2.43E2,2.94E2,2.44E2,2.46E2,2.53E2,1.98E2,2.4E2,5.4E1,1.06E2,1.38E2,1.71E2,7.5E1,1.05E2,1.48E2,1E2,9.8E1,1E0,1.37E2,1.08E2,6.3E1,5.8E1,1.7E1,9.5E1,1E1,9.6E1,5.2E1,9.2E1,8E0,5.3E1,4.5E1,1.07E2,1E0,5.7E1,1E0,3E0,9.2E1,5E0,9.1E1,3.7E1,1.5E1,1.4E1,7.8E1,5E0,3E0,1.5E1,3.8E1,2.3E1,2.2E1,3E0,8.9E1,4E0,1E0,3E0,8.8E1,2E0,3.5E1,1.4E1,1E0,1.3E1,1E0,7.5E1,3E0,1.3E1,2E0,3E0,3.5E1,1.8E1,5E0,2E0,2E1,8.6E1,3E0,1E0,8.7E1,3.3E1,2E0,4.4E1,3.1E1,1.2E1,1E0,3.1E1,4E0,1E0,1.7E1,1.6E1,4E0,8.6E1,1E0,2E0,3.1E1,3.9E1,5E0,1E0,3E1,3E0,2.8E1,1E0,3E0,1.6E1,1E0,2E0,8.4E1,2E0,2.9E1,3.6E1,3E0,2.9E1,1E0,2.6E1,2E0],"tree_param":{"num_deleted":"0","num_feature":"250","num_nodes":"119","size_leaf_vector":"0"}},{"base_weights":[2.771017E0,4.0562243E0,1.4351199E0,4.7684994E0,3.358452E0,2.062569E0,7.2243756E-1,5.5334935E0,4.42491E0,3.6742337E0,3.0280046E0,2.3787315E0,1.7006879E0,1.0563205E0,3.6814615E-1,6.509352E0,5.2473288E0,8.2579184E-1,3.0340416E0,2.5543811E0,2.1610138E0,1.7646148E0,1.223211E0,1.1970148E0,8.9402354E-1,5.3793776E-1,1.8405662E-1,3.0399563E0,8.456993E-1,6.0267115E-1,2.1693969E0,8.7558496E-1,1.7790264E0,1.2025964E0,2.9710054E-1,1.0012021E0,7.7806556E-1,5.5918914E-1,2.843808E-1,1.595034E-1,2.1505737E-1,2.1777945E0,6.102309E-1,1.7837081E0,4.5645618E-1,3.2463622E-1,1.2077677E0,6.126991E-1,1.0513647E0,4.1252375E-2,7.9144174E-1,6.1692315E-1,4.7302034E-1,1.3274351E-1,3.3040485E-1,1.722343E-1,9.6348815E-2,1.07769035E-1,2.2730516E-1,2.207203E0,1.2854759E0,5.006299E-1,1.7879605E0,3.2680035E-1,1.2129956E0,4.6273148E-1,1.0847791E0,8.421226E-1,4.943696E-1,1.45913E-1,6.23175E-1,5.1681226E-1,3.204728E-1,1.8776844E-1,1.22206055E-1,8.951604E-3,1.0348023E-1,7.856858E-2,2.3393863E-1,6.457982E-1,2.21576E0,1.7922261E0,5.036807E-1,1.2180136E0,3.43055E-1,2.6100397E-1,1.099589E0,3.5863543E-1,8.6941826E-1,6.2950283E-1,1.5022826E-1,5.782859E-1,3.2988924E-1,3.4948623E-1,1.1693716E-1,7.277985E-2,1.9654863E-1,3.0370891E-2,1.07754074E-1,8.97609E-2,2.4034491E-1,1.8068419E0,1.05992E0,5.1510924E-1,1.2266612E0,1.6876757E-1,6.353422E-1,3.1748965E-1,6.3631475E-1,1.0239166E-1,2.0670553E-1,1.9649553E-1,2.859444E-1,5.172632E-1,1.8112051E0,2.5568733E-1,6.458343E-1,6.6852593E-1,2.6315394E-1,2.1435003E-1,7.40995E-2,2.9820848E-1,6.938779E-2],"categories":[],"categories_nodes":[],"categories_segments":[],"categories_sizes":[],"default_left":[1,1,1,1,1,1,1,1,0,0,1,1,1,1,1,0,0,0,1,0,1,1,0,1,1,1,1,0,0,0,1,0,1,1,0,1,1,1,1,1,1,1,0,1,0,0,1,0,1,0,1,1,1,0,0,1,1,0,1,1,0,0,1,0,1,0,1,1,0,0,1,1,1,1,0,0,1,0,1,0,0,1,0,1,0,0,0,0,0,1,0,1,0,0,0,0,1,0,0,0,1,1,0,0,0,0,1,0,1,0,1,0,1,0,0,0,0,0,0,0,0,0,0],"id":17,"left_children":[1,3,5,7,9,11,13,15,-1,-1,17,19,21,23,25,-1,-1,-1,27,-1,29,31,-1,33,35,37,39,-1,-1,-1,41,-1,43,45,-1,47,49,51,53,55,57,59,-1,61,-1,-1,63,-1,65,-1,67,69,71,-1,-1,73,75,-1,77,79,-1,-1,81,-1,83,-1,85,87,-1,-1,89,91,93,95,-1,-1,97,-1,99,-1,-1,101,-1,103,-1,-1,-1,-1,-1,105,-1,107,-1,-1,-1,-1,109,-1,-1,-1,111,113,-1,-1,-1,-1,115,-1,117,-1,119,-1,121,-1,-1,-1,-1,-1,-1,-1,-1,-1,-1],"loss_changes":[3.021082E3,4.3029688E2,3.8576086E2,9.169141E1,3.6561523E1,4.8584595E1,4.7755905E1,2.984375E0,0E0,0E0,5.390625E-1,3.772705E0,4.4956665E0,3.7021942E0,6.121105E0,0E0,0E0,0E0,3.8012695E-1,0E0,1.9494629E-1,8.7664795E-1,0E0,1.9023132E-1,4.762497E-1,3.9598656E-1,3.9530993E-2,0E0,0E0,0E0,1.6363525E-1,0E0,3.3746338E-1,9.82666E-2,0E0,3.1074905E-1,4.8970413E-1,1.758194E-1,2.5930524E-2,3.0038238E-2,2.8065205E-2,1.2805176E-1,0E0,1.1437988E-1,0E0,0E0,9.640503E-2,0E0,3.2413864E-1,0E0,3.665886E-1,6.514168E-2,1.14951134E-1,0E0,0E0,1.3579369E-2,6.552875E-3,0E0,1.6152263E-2,1.2023926E-2,0E0,0E0,1.0522461E-1,0E0,4.486084E-2,0E0,1.88797E-1,2.5566864E-1,0E0,0E0,6.1050415E-2,1.6544533E-1,2.9995203E-2,2.0022392E-2,0E0,0E0,1.6444921E-4,0E0,8.906722E-3,0E0,0E0,4.35791E-2,0E0,6.362915E-3,0E0,0E0,0E0,0E0,0E0,2.9987335E-2,0E0,1.3091898E-1,0E0,0E0,0E0,0E0,8.481741E-3,0E0,0E0,0E0,5.797982E-3,6.4697266E-2,0E0,0E0,0E0,0E0,3.4038544E-2,0E0,2.8413296E-2,0E0,1.1486888E-2,0E0,1.3834238E-2,0E0,0E0,0E0,0E0,0E0,0E0,0E0,0E0,0E0,0E0],"parents":[2147483647,0,0,1,1,2,2,3,3,4,4,5,5,6,6,7,7,10,10,11,11,12,12,13,13,14,14,18,18,20,20,21,21,23,23,24,24,25,25,26,26,30,30,32,32,33,33,35,35,36,36,37,37,38,38,39,39,40,40,41,41,43,43,46,46,48,48,50,50,51,51,52,52,55,55,56,56,58,58,59,59,62,62,64,64,66,66,67,67,70,70,71,71,72,72,73,73,76,76,78,78,81,81,83,83,89,89,91,91,96,96,100,100,101,101,106,106,108,108,110,110,112,112],"right_children":[2,4,6,8,10,12,14,16,-1,-1,18,20,22,24,26,-1,-1,-1,28,-1,30,32,-1,34,36,38,40,-1,-1,-1,42,-1,44,46,-1,48,50,52,54,56,58,60,-1,62,-1,-1,64,-1,66,-1,68,70,72,-1,-1,74,76,-1,78,80,-1,-1,82,-1,84,-1,86,88,-1,-1,90,92,94,96,-1,-1,98,-1,100,-1,-1,102,-1,104,-1,-1,-1,-1,-1,106,-1,108,-1,-1,-1,-1,110,-1,-1,-1,112,114,-1,-1,-1,-1,116,-1,118,-1,120,-1,122,-1,-1,-1,-1,-1,-1,-1,-1,-1,-1],"split_conditions":[-6.528134E1,-4.975503E2,9.428441E1,-6.444703E2,-5.449458E2,-4.6779816E1,7.248041E1,-1.8434268E2,4.4249102E-1,3.674234E-1,1.03487946E2,-4.9076782E2,3.8757324E1,4.5400105E1,8.758098E0,6.5093523E-1,5.247329E-1,8.257919E-2,3.8378105E1,2.5543812E-1,-7.3720746E0,4.0892036E1,1.2232111E-1,1.325104E2,7.8618225E1,-2.5835425E2,8.8196945E1,3.0399564E-1,8.456993E-2,6.0267117E-2,-2.9345697E2,8.75585E-2,4.8820286E1,-3.280288E1,2.9710054E-2,-1.9323624E1,-3.8336998E1,1.927039E1,-4.4996418E1,8.277569E1,-7.716077E1,-7.655042E1,6.1023094E-2,-6.49485E1,4.564562E-2,3.246362E-2,-3.5021385E1,6.126991E-2,1.0562267E1,4.1252375E-3,1.2879639E2,-1.44980345E1,9.241923E1,1.3274351E-2,3.3040486E-2,-2.7809644E2,8.282678E1,1.07769035E-2,7.974958E1,9.385883E0,1.285476E-1,5.006299E-2,7.330844E1,3.2680035E-2,7.638639E1,4.627315E-2,-4.4975094E1,2.2977726E1,4.943696E-2,1.4591301E-2,1.05738266E2,1.4895444E2,-2.1379938E2,-9.081624E1,1.2220605E-2,8.951604E-4,-1.5222068E1,7.856858E-3,4.6356506E1,6.457982E-2,2.21576E-1,1.164164E2,5.036807E-2,3.4363113E1,3.43055E-2,2.6100397E-2,1.099589E-1,3.5863545E-2,8.694183E-2,4.167248E1,1.5022826E-2,-2.6222965E1,3.2988925E-2,3.4948625E-2,1.1693716E-2,7.277985E-3,6.4688965E1,3.0370892E-3,1.0775408E-2,8.97609E-3,6.1294657E-1,4.606154E1,1.05992E-1,5.1510926E-2,1.2266612E-1,1.6876757E-2,-6.0841568E1,3.1748965E-2,8.400476E1,1.0239166E-2,-6.951909E1,1.9649554E-2,4.11913E1,5.172632E-2,1.8112051E-1,2.5568733E-2,6.4583436E-2,6.685259E-2,2.6315395E-2,2.1435004E-2,7.4099503E-3,2.9820848E-2,6.9387793E-3],"split_indices":[107,89,101,91,92,106,97,98,0,0,71,92,85,103,96,0,0,0,9,0,3,64,0,84,234,88,129,0,0,0,214,0,163,107,0,42,40,105,152,128,209,86,0,38,0,0,0,0,113,0,101,48,233,0,0,213,128,0,127,21,0,0,207,0,76,0,141,20,0,0,127,199,94,34,0,0,1,0,135,0,0,245,0,13,0,0,0,0,0,16,0,140,0,0,0,0,133,0,0,0,56,117,0,0,0,0,29,0,103,0,35,0,20,0,0,0,0,0,0,0,0,0,0],"split_type":[0,0,0,0,0,0,0,0,0,0,0,0,0,0,0,0,0,0,0,0,0,0,0,0,0,0,0,0,0,0,0,0,0,0,0,0,0,0,0,0,0,0,0,0,0,0,0,0,0,0,0,0,0,0,0,0,0,0,0,0,0,0,0,0,0,0,0,0,0,0,0,0,0,0,0,0,0,0,0,0,0,0,0,0,0,0,0,0,0,0,0,0,0,0,0,0,0,0,0,0,0,0,0,0,0,0,0,0,0,0,0,0,0,0,0,0,0,0,0,0,0,0,0],"sum_hessian":[1.762E3,8.97E2,8.65E2,4.41E2,4.56E2,4.59E2,4.06E2,1.32E2,3.09E2,2.28E2,2.28E2,2.42E2,2.17E2,2.08E2,1.98E2,2.5E1,1.07E2,1E0,2.27E2,1.28E2,1.14E2,1.89E2,2.8E1,1.08E2,1E2,1.02E2,9.6E1,2.26E2,1E0,1E0,1.13E2,4E0,1.85E2,1.07E2,1E0,4.8E1,5.2E1,9.3E1,9E0,5.7E1,3.9E1,1.12E2,1E0,1.84E2,1E0,1E0,1.06E2,7E0,4.1E1,1E0,5.1E1,5.2E1,4.1E1,3E0,6E0,4.6E1,1.1E1,5E0,3.4E1,1.07E2,5E0,1E0,1.83E2,1E0,1.05E2,3E0,3.8E1,4.2E1,9E0,1E0,5.1E1,3E1,1.1E1,3.3E1,1.3E1,1E0,1E1,2E0,3.2E1,1E0,1.06E2,1.82E2,1E0,1.04E2,1E0,1E0,3.7E1,3E0,3.9E1,5E1,1E0,2.1E1,9E0,9E0,2E0,3E0,3E1,1E0,9E0,2E0,3E1,1.77E2,5E0,2E0,1.02E2,1E0,4.9E1,5E0,1.6E1,4E0,2.6E1,1.8E1,1.2E1,1E0,1.76E2,2E0,4.7E1,1.4E1,2E0,2.4E1,2E0,1.1E1,1E0],"tree_param":{"num_deleted":"0","num_feature":"250","num_nodes":"123","size_leaf_vector":"0"}},{"base_weights":[2.496871E0,3.725963E0,1.3640313E0,4.518757E0,3.251032E0,1.9502677E0,6.8101543E-1,5.200887E0,4.234412E0,3.5811775E0,2.9174054E0,2.2133133E0,1.5654806E0,9.8084563E-1,3.3406928E-1,3.0345287E0,2.5724237E0,2.0224185E0,2.4472437E0,1.2768139E0,1.6414417E0,1.103003E0,7.949722E-1,4.9133056E-1,1.7025653E-1,2.5993748E0,1.0591387E0,1.0522673E0,2.0398772E0,2.4626696E0,9.938949E-1,4.8443905E-1,1.3012652E0,1.5261123E0,1.8668456E0,1.1347502E0,7.959618E-1,8.8626283E-1,6.930468E-1,5.0580686E-1,2.2467618E-1,1.5541646E-1,2.3269592E-1,2.059809E0,1.1783528E0,3.4935808E-1,1.3149595E0,7.872337E-1,1.5465678E0,1.1559658E0,6.932356E-1,8.9721E-1,1.9682014E-1,3.9189816E-2,7.058524E-1,3.9968684E-1,5.486364E-1,2.55377E-1,9.8616086E-2,1.6525303E-1,1.1616862E-1,3.1097782E-1,1.2855893E-1,2.0655806E0,5.7971954E-1,1.3472686E0,6.5505075E-1,1.5595273E0,5.817855E-1,2.5259852E-1,1.1617763E0,5.3307134E-1,9.3956286E-1,7.872042E-1,5.111989E-1,4.3621963E-1,2.1211441E-1,5.859375E-1,3.9778054E-1,1.6924325E-1,6.3088775E-2,1.2138759E-1,8.504033E-3,5.827837E-1,1.5729655E0,4.3575382E-1,1.1710153E0,7.188854E-1,1.0618217E0,8.180988E-1,3.664173E-1,5.2485824E-1,1.463244E-1,6.3593763E-1,4.119416E-1,4.675867E-2,1.7260276E-1,1.3420244E-1,7.1255006E-2,8.4477556E-1,1.5940675E0,1.1760998E0,3.0840445E-1,8.331698E-1,1.9805527E-1,3.694352E-1,6.967164E-1,1.777917E-1,8.100383E-2,1.4330469E-1,5.305928E-2,1.6010114E0,4.6024942E-1,3.1627202E-1,1.1811327E0,2.4144244E-1,8.461433E-1,1.7971039E-1,3.7091076E-2],"categories":[],"categories_nodes":[],"categories_segments":[],"categories_sizes":[],"default_left":[1,1,1,1,1,1,1,0,0,0,1,1,1,1,1,0,1,1,1,1,1,1,1,1,1,0,0,0,1,0,0,0,1,1,0,1,0,1,1,1,1,1,1,1,0,0,1,0,1,1,0,1,0,0,1,1,1,0,0,1,1,0,0,0,0,0,0,1,0,0,1,0,1,1,1,0,0,1,0,1,0,1,0,0,1,0,1,0,0,1,0,0,0,1,0,0,1,1,0,0,1,1,0,1,0,0,0,1,0,0,0,0,0,0,0,0,0,0,0],"id":18,"left_children":[1,3,5,7,9,11,13,-1,-1,-1,15,17,19,21,23,-1,25,27,29,31,33,35,37,39,41,-1,-1,-1,43,-1,-1,-1,45,47,-1,49,-1,51,53,55,57,59,61,63,-1,-1,65,-1,67,69,-1,71,-1,-1,73,75,77,-1,-1,79,81,-1,-1,-1,-1,-1,-1,83,-1,-1,85,-1,87,89,91,-1,-1,93,-1,95,-1,97,-1,-1,99,-1,101,-1,-1,103,-1,-1,-1,105,-1,-1,107,109,-1,-1,111,113,-1,115,-1,-1,-1,117,-1,-1,-1,-1,-1,-1,-1,-1,-1,-1,-1],"loss_changes":[2.4496553E3,3.034707E2,3.6664746E2,3.888037E1,4.8149414E1,4.6536133E1,4.398694E1,0E0,0E0,0E0,3.1035156E0,8.045532E0,2.377411E0,4.3000793E0,5.0428677E0,0E0,3.0578613E-1,6.6516113E-1,3.7719727E-1,2.8022766E-1,1.2582703E0,4.1271973E-1,2.604332E-1,2.7623367E-1,5.5568933E-2,0E0,0E0,0E0,3.546753E-1,0E0,0E0,0E0,1.272049E-1,4.4506836E-1,0E0,3.226776E-1,0E0,1.7059326E-1,3.8261414E-1,2.1249962E-1,1.9067526E-3,1.2846231E-2,9.860569E-2,1.4361572E-1,0E0,0E0,5.5610657E-2,0E0,4.1799927E-1,2.9966736E-1,0E0,1.9314957E-1,0E0,0E0,3.5768318E-1,1.1990023E-1,1.3268661E-1,0E0,0E0,1.5412807E-2,1.0205686E-2,0E0,0E0,0E0,0E0,0E0,0E0,4.4837952E-1,0E0,0E0,2.4099731E-1,0E0,2.888832E-1,1.1623573E-1,7.927895E-3,0E0,0E0,1.7302132E-1,0E0,1.703E-2,0E0,2.6437938E-3,0E0,0E0,2.2071838E-1,0E0,1.1973572E-1,0E0,0E0,1.0598183E-1,0E0,0E0,0E0,3.4192276E-1,0E0,0E0,1.3641E-2,2.7365685E-3,0E0,0E0,3.4698486E-2,9.812927E-2,0E0,1.0654449E-2,0E0,0E0,0E0,8.182168E-3,0E0,0E0,0E0,0E0,0E0,0E0,0E0,0E0,0E0,0E0,0E0],"parents":[2147483647,0,0,1,1,2,2,3,3,4,4,5,5,6,6,10,10,11,11,12,12,13,13,14,14,16,16,17,17,18,18,19,19,20,20,21,21,22,22,23,23,24,24,28,28,32,32,33,33,35,35,37,37,38,38,39,39,40,40,41,41,42,42,43,43,46,46,48,48,49,49,51,51,54,54,55,55,56,56,59,59,60,60,67,67,70,70,72,72,73,73,74,74,77,77,79,79,81,81,84,84,86,86,89,89,93,93,96,96,97,97,100,100,101,101,103,103,107,107],"right_children":[2,4,6,8,10,12,14,-1,-1,-1,16,18,20,22,24,-1,26,28,30,32,34,36,38,40,42,-1,-1,-1,44,-1,-1,-1,46,48,-1,50,-1,52,54,56,58,60,62,64,-1,-1,66,-1,68,70,-1,72,-1,-1,74,76,78,-1,-1,80,82,-1,-1,-1,-1,-1,-1,84,-1,-1,86,-1,88,90,92,-1,-1,94,-1,96,-1,98,-1,-1,100,-1,102,-1,-1,104,-1,-1,-1,106,-1,-1,108,110,-1,-1,112,114,-1,116,-1,-1,-1,118,-1,-1,-1,-1,-1,-1,-1,-1,-1,-1,-1],"split_conditions":[-5.6394333E1,-5.137789E2,-2.7495706E2,-1.7270953E2,-1.0480968E2,-4.7347157E1,7.248041E1,5.2008873E-1,4.2344123E-1,3.5811776E-1,-2.367126E2,2.7355892E1,1.1767977E1,-3.4504413E2,-9.810826E1,3.0345288E-1,3.974321E1,3.571047E1,-2.9870846E1,1.1015292E2,-7.51269E1,-5.2880554E0,7.900258E1,-2.5672693E2,2.1633972E1,2.599375E-1,1.0591387E-1,1.0522673E-1,-7.655042E1,2.4626696E-1,9.9389486E-2,4.8443906E-2,-3.933101E1,1.3500729E1,1.8668456E-1,9.846296E1,7.9596184E-2,-1.5650363E2,-3.8336998E1,-2.4906046E2,-3.1145973E0,-1.919722E2,-2.5369542E2,-1.3421948E2,1.1783528E-1,3.493581E-2,4.813655E1,7.872337E-2,7.6749663E0,1.8614493E2,6.932356E-2,6.868791E1,1.9682014E-2,3.9189816E-3,1.4896411E2,-2.1495924E2,1.978216E2,2.55377E-2,9.861609E-3,4.041263E1,2.8608524E1,3.1097783E-2,1.2855894E-2,2.0655806E-1,5.7971954E-2,1.3472687E-1,6.550508E-2,-2.0272755E1,5.817855E-2,2.5259852E-2,-3.5021385E1,5.3307135E-2,-3.416602E1,3.9173918E0,6.7676926E1,4.3621965E-2,2.1211442E-2,1.9012462E2,3.9778054E-2,-6.443202E1,6.3088774E-3,6.0007496E1,8.5040333E-4,5.827837E-2,-7.340343E1,4.3575384E-2,2.6992842E1,7.188854E-2,1.0618217E-1,5.980309E1,3.6641728E-2,5.2485824E-2,1.463244E-2,1.4510349E2,4.119416E-2,4.675867E-3,-3.040636E2,-1.3623428E2,7.1255006E-3,8.447756E-2,8.877644E1,4.8170097E1,3.0840445E-2,-1.4386475E2,1.9805526E-2,3.694352E-2,6.9671646E-2,2.0545996E2,8.100383E-3,1.4330469E-2,5.305928E-3,1.6010115E-1,4.6024945E-2,3.1627204E-2,1.1811327E-1,2.4144245E-2,8.461433E-2,1.7971039E-2,3.7091076E-3],"split_indices":[108,89,94,105,106,106,97,0,0,0,87,57,57,93,95,0,10,137,193,130,32,106,234,88,6,0,0,0,86,0,0,0,40,59,0,247,0,87,40,212,57,94,88,219,0,0,18,0,179,225,0,134,0,0,99,94,201,0,0,184,185,0,0,0,0,0,0,0,0,0,0,0,28,43,161,0,0,229,0,38,0,85,0,0,30,0,23,0,0,207,0,0,0,240,0,0,215,170,0,0,76,161,0,95,0,0,0,99,0,0,0,0,0,0,0,0,0,0,0],"split_type":[0,0,0,0,0,0,0,0,0,0,0,0,0,0,0,0,0,0,0,0,0,0,0,0,0,0,0,0,0,0,0,0,0,0,0,0,0,0,0,0,0,0,0,0,0,0,0,0,0,0,0,0,0,0,0,0,0,0,0,0,0,0,0,0,0,0,0,0,0,0,0,0,0,0,0,0,0,0,0,0,0,0,0,0,0,0,0,0,0,0,0,0,0,0,0,0,0,0,0,0,0,0,0,0,0,0,0,0,0,0,0,0,0,0,0,0,0,0,0],"sum_hessian":[1.762E3,8.44E2,9.18E2,3.13E2,5.31E2,4.93E2,4.25E2,8.7E1,2.26E2,2.62E2,2.69E2,2.9E2,2.03E2,2.27E2,1.98E2,1.95E2,7.4E1,1.65E2,1.25E2,4.6E1,1.57E2,1.34E2,9.3E1,1E2,9.8E1,7.2E1,2E0,4E0,1.61E2,1.23E2,2E0,2E0,4.4E1,1.09E2,4.8E1,1.19E2,1.5E1,4.5E1,4.8E1,9.4E1,6E0,8.2E1,1.6E1,1.56E2,5E0,1E0,4.3E1,4E0,1.05E2,1.12E2,7E0,4.4E1,1E0,1E0,4.7E1,3E1,6.4E1,4E0,2E0,6.3E1,1.9E1,8E0,8E0,1.55E2,1E0,4E1,3E0,1.03E2,2E0,1E0,1.11E2,6E0,3.8E1,3.1E1,1.6E1,2.4E1,6E0,4.9E1,1.5E1,6E1,3E0,1.8E1,1E0,2E0,1.01E2,2E0,1.09E2,1.6E1,2.2E1,2.8E1,3E0,1.5E1,1E0,3.6E1,1.3E1,2E0,5.8E1,1.3E1,5E0,4E0,9.7E1,1.08E2,1E0,2.7E1,1E0,8E0,2.8E1,5.4E1,4E0,1.1E1,2E0,9.6E1,1E0,1E0,1.07E2,1E0,2.6E1,5.3E1,1E0],"tree_param":{"num_deleted":"0","num_feature":"250","num_nodes":"119","size_leaf_vector":"0"}},{"base_weights":[2.250046E0,3.2598064E0,1.1341004E0,3.8745856E0,2.6891913E0,1.6121241E0,5.524558E-1,4.4128E0,3.5361152E0,2.9217534E0,2.3703218E0,1.8557603E0,1.3027098E0,7.887909E-1,2.6511383E-1,5.4624166E0,4.2158756E0,7.6968575E-1,2.9267986E0,2.273147E0,2.7025847E0,2.0236044E0,1.7057049E0,8.4456766E-1,1.3394498E0,8.4987587E-1,5.2712464E-1,4.0665486E-1,1.526421E-1,2.2788534E0,6.600876E-1,2.0335667E0,4.4394684E-1,8.704014E-1,1.7237401E0,5.101791E-1,9.339341E-1,8.1532156E-1,1.3581111E0,9.2192024E-1,7.4920917E-1,1.8835776E-1,5.393541E-1,4.5907387E-1,3.109766E-1,1.2924702E-1,1.7732415E-1,2.0676658E0,1.3232946E0,1.7343888E0,6.6996604E-1,1.3790795E0,8.616431E-1,4.4120964E-1,9.385678E-1,7.885203E-1,4.4880635E-1,1.3900816E-1,5.46055E-1,5.190209E-1,3.2275432E-1,3.8231573E-1,2.1414973E-1,1.6516954E-1,1.1119556E-1,1.3452633E-1,2.1595249E-1,2.0925927E0,1.1406395E0,1.7400575E0,4.8739576E-1,3.318901E-1,1.3832625E0,9.6061164E-1,5.431095E-1,2.705852E-1,8.0066764E-1,4.8624092E-1,3.7230253E-2,4.643666E-1,6.587582E-1,1.0949254E-1,5.290221E-1,6.806481E-2,3.3441836E-1,4.2444324E-1,2.0474653E-1,2.3227076E-1,1.0624918E-1,1.8696977E-1,7.9815105E-2,9.796558E-2,1.5021601E-1,1.4848159E-1,6.7913614E-2,1.23237394E-1,2.3597237E-1,8.684869E-1,1.7533875E0,1.2970647E0,1.5249082E0,1.0354896E0,7.765484E-1,4.6508685E-1,8.2157826E-1,6.806659E-1,1.8697917E-1,2.5341195E-1,5.502598E-1,1.02006316E-1,2.4903059E-2,5.5577595E-2,1.561422E-1,2.58982E-1,1.2895286E-1,1.4268125E0,1.8169492E0,1.3239948E0,8.3876216E-1,1.5459068E0,6.176319E-1,1.069165E0,5.7666636E-1,2.8585592E-1,8.032995E-1,8.301139E-1,1.6752362E-1,5.905011E-1,3.5092744E-1,3.8743537E-2,1.0514139E-1,1.6067177E-1,4.1834593E-2,1.8505691E0,1.1737856E0,1.5682628E0,6.20745E-1,1.0870945E0,4.1992632E-1,2.1687746E-1,8.3719176E-1,2.4622273E-1,6.1378187E-1,1.13509625E-1,6.382101E-2,4.7480524E-2,1.6505247E-1],"categories":[],"categories_nodes":[],"categories_segments":[],"categories_sizes":[],"default_left":[1,1,1,1,1,1,1,1,0,1,1,1,1,1,1,0,0,0,0,1,0,1,1,1,1,1,1,1,1,0,0,1,0,0,1,0,0,0,1,1,1,0,1,1,1,1,1,1,0,1,0,1,0,0,1,1,1,0,1,1,1,1,1,1,1,1,1,0,0,1,0,0,1,1,0,0,1,0,0,0,1,0,1,0,0,0,0,0,0,0,0,1,0,1,0,0,1,0,1,1,1,1,1,0,1,0,0,0,1,1,0,0,1,0,0,0,1,0,0,1,0,1,0,0,0,1,0,1,0,0,1,1,0,0,0,0,0,0,0,0,0,0,0,0,0,0,0],"id":19,"left_children":[1,3,5,7,9,11,13,15,-1,17,19,21,23,25,27,-1,-1,-1,-1,29,-1,31,33,35,37,39,41,43,45,-1,-1,47,-1,-1,49,-1,-1,-1,51,53,55,-1,57,59,61,63,65,67,-1,69,-1,71,-1,-1,73,75,77,-1,79,81,83,85,87,89,91,93,95,-1,-1,97,-1,-1,99,101,-1,-1,103,-1,-1,-1,105,-1,107,-1,-1,-1,-1,-1,-1,-1,-1,109,-1,111,-1,-1,113,-1,115,117,119,121,123,-1,125,-1,-1,-1,127,129,-1,-1,131,-1,-1,-1,133,-1,-1,135,-1,137,-1,-1,-1,139,-1,141,-1,-1,143,145,-1,-1,-1,-1,-1,-1,-1,-1,-1,-1,-1,-1,-1,-1,-1],"loss_changes":[1.982918E3,3.1407324E2,2.3238489E2,6.509668E1,2.8892334E1,3.2259277E1,2.559629E1,1.1489258E1,0E0,7.331543E-1,6.047363E-1,2.9707642E0,2.3361816E0,2.8766632E0,2.6919775E0,0E0,0E0,0E0,0E0,4.2175293E-2,0E0,9.069824E-1,6.237793E-1,6.1422348E-2,7.413025E-1,5.204544E-1,7.241154E-2,2.3840618E-1,3.3670425E-2,0E0,0E0,2.4902344E-2,0E0,0E0,3.753357E-1,0E0,0E0,0E0,6.959839E-1,3.3013916E-1,5.317955E-1,0E0,3.1401634E-2,2.1656513E-1,1.2535357E-1,1.6650438E-2,4.534304E-2,8.5632324E-2,0E0,1.0620117E-1,0E0,2.9431152E-1,0E0,0E0,2.541275E-1,1.923027E-1,1.5137601E-1,0E0,5.3150177E-2,6.904507E-2,2.7739882E-2,3.2785654E-2,4.650414E-3,1.4848918E-2,5.417347E-3,1.2226433E-2,1.1754513E-2,0E0,0E0,3.40271E-2,0E0,0E0,1.09954834E-1,3.3982086E-1,0E0,0E0,5.9978485E-2,0E0,0E0,0E0,1.7427921E-2,0E0,3.6157608E-2,0E0,0E0,0E0,0E0,0E0,0E0,0E0,0E0,6.9069564E-3,0E0,4.8443377E-3,0E0,0E0,8.465707E-3,0E0,1.2683105E-1,2.8414917E-1,1.6923523E-1,2.4871445E-1,1.3791466E-1,0E0,1.8474197E-1,0E0,0E0,0E0,9.354591E-3,1.8764734E-3,0E0,0E0,2.0803213E-3,0E0,0E0,0E0,1.1984253E-1,0E0,0E0,2.0544434E-1,0E0,1.3716507E-1,0E0,0E0,0E0,6.5834045E-2,0E0,1.7188549E-2,0E0,0E0,2.4375021E-3,9.691715E-5,0E0,0E0,0E0,0E0,0E0,0E0,0E0,0E0,0E0,0E0,0E0,0E0,0E0,0E0,0E0],"parents":[2147483647,0,0,1,1,2,2,3,3,4,4,5,5,6,6,7,7,9,9,10,10,11,11,12,12,13,13,14,14,19,19,21,21,22,22,23,23,24,24,25,25,26,26,27,27,28,28,31,31,34,34,38,38,39,39,40,40,42,42,43,43,44,44,45,45,46,46,47,47,49,49,51,51,54,54,55,55,56,56,58,58,59,59,60,60,61,61,62,62,63,63,64,64,65,65,66,66,69,69,72,72,73,73,76,76,80,80,82,82,91,91,93,93,96,96,98,98,99,99,100,100,101,101,102,102,104,104,108,108,109,109,112,112,116,116,119,119,121,121,125,125,127,127,130,130,131,131],"right_children":[2,4,6,8,10,12,14,16,-1,18,20,22,24,26,28,-1,-1,-1,-1,30,-1,32,34,36,38,40,42,44,46,-1,-1,48,-1,-1,50,-1,-1,-1,52,54,56,-1,58,60,62,64,66,68,-1,70,-1,72,-1,-1,74,76,78,-1,80,82,84,86,88,90,92,94,96,-1,-1,98,-1,-1,100,102,-1,-1,104,-1,-1,-1,106,-1,108,-1,-1,-1,-1,-1,-1,-1,-1,110,-1,112,-1,-1,114,-1,116,118,120,122,124,-1,126,-1,-1,-1,128,130,-1,-1,132,-1,-1,-1,134,-1,-1,136,-1,138,-1,-1,-1,140,-1,142,-1,-1,144,146,-1,-1,-1,-1,-1,-1,-1,-1,-1,-1,-1,-1,-1,-1,-1],"split_conditions":[-6.982555E1,-1.1843093E2,3.1012888E1,-4.2408966E2,-9.5871735E1,-4.8978833E2,1.0203923E2,-1.5112701E2,3.5361153E-1,1.18450165E2,8.329061E1,-5.1580994E1,4.117623E1,-1.6623747E2,-2.0858928E2,5.462417E-1,4.2158756E-1,7.696857E-2,2.9267988E-1,3.6144882E1,2.702585E-1,7.700288E0,7.571097E1,1.2151967E2,-8.932766E1,9.172905E1,-5.152085E1,1.7234946E2,4.6649637E0,2.2788535E-1,6.600876E-2,9.72896E1,4.4394683E-2,8.704014E-2,1.3440137E2,5.101791E-2,9.339341E-2,8.153216E-2,4.2737457E1,3.4401443E1,-2.7831152E2,1.8835776E-2,4.1791203E1,9.096106E0,8.4539154E1,-3.2607334E1,7.554046E1,8.714824E1,1.3232946E-1,1.4226849E1,6.6996604E-2,-2.3156464E1,8.616431E-2,4.4120964E-2,7.960719E0,1.5504361E2,5.3210125E1,1.3900816E-2,-7.579255E1,3.4846996E1,7.2486296E0,1.8308783E2,-1.0134352E2,-6.696784E1,1.3138193E2,8.1555915E-1,1.4758615E2,2.0925927E-1,1.14063956E-1,1.4307853E1,4.873958E-2,3.318901E-2,9.292757E1,-1.870558E2,5.4310948E-2,2.7058521E-2,1.0261244E2,4.8624095E-2,3.7230253E-3,4.6436664E-2,-6.658998E1,1.0949254E-2,-5.5395374E0,6.806481E-3,3.3441838E-2,4.2444326E-2,2.0474654E-2,2.3227077E-2,1.0624918E-2,1.8696977E-2,7.981511E-3,1.5764546E2,1.5021602E-2,-8.778606E1,6.7913616E-3,1.232374E-2,2.4133E1,8.684869E-2,-8.295187E1,8.164606E1,3.1752357E0,1.9466362E2,2.5554716E1,4.6508685E-2,7.013062E1,6.806659E-2,1.8697917E-2,2.5341196E-2,1.9825275E2,-1.1827891E1,2.490306E-3,5.5577597E-3,3.7093818E0,2.5898201E-2,1.2895286E-2,1.4268126E-1,1.3053741E2,1.3239948E-1,8.3876215E-2,-3.9333708E0,6.1763193E-2,2.2850742E2,5.7666637E-2,2.8585592E-2,8.032995E-2,-3.0374702E1,1.6752362E-2,-6.670456E1,3.5092745E-2,3.8743538E-3,-3.9706917E1,3.7322304E1,4.1834596E-3,1.8505691E-1,1.17378555E-1,1.5682629E-1,6.20745E-2,1.08709455E-1,4.199263E-2,2.1687746E-2,8.371918E-2,2.4622275E-2,6.137819E-2,1.1350962E-2,6.382101E-3,4.7480525E-3,1.6505247E-2],"split_indices":[106,106,103,88,105,91,102,99,0,120,136,107,64,87,94,0,0,0,0,156,0,26,77,79,32,236,152,83,3,0,0,233,0,0,243,0,0,0,85,13,88,0,15,109,97,178,126,197,0,43,0,187,0,0,139,224,12,0,32,85,23,204,95,148,243,51,240,0,0,20,0,0,120,211,0,0,244,0,0,0,32,0,58,0,0,0,0,0,0,0,0,240,0,35,0,0,96,0,35,249,42,82,20,0,118,0,0,0,201,221,0,0,221,0,0,0,223,0,0,154,0,227,0,0,0,0,0,150,0,0,86,67,0,0,0,0,0,0,0,0,0,0,0,0,0,0,0],"split_type":[0,0,0,0,0,0,0,0,0,0,0,0,0,0,0,0,0,0,0,0,0,0,0,0,0,0,0,0,0,0,0,0,0,0,0,0,0,0,0,0,0,0,0,0,0,0,0,0,0,0,0,0,0,0,0,0,0,0,0,0,0,0,0,0,0,0,0,0,0,0,0,0,0,0,0,0,0,0,0,0,0,0,0,0,0,0,0,0,0,0,0,0,0,0,0,0,0,0,0,0,0,0,0,0,0,0,0,0,0,0,0,0,0,0,0,0,0,0,0,0,0,0,0,0,0,0,0,0,0,0,0,0,0,0,0,0,0,0,0,0,0,0,0,0,0,0,0],"sum_hessian":[1.762E3,9.24E2,8.38E2,4.42E2,4.82E2,4.59E2,3.79E2,1.66E2,2.76E2,2.74E2,2.08E2,2.54E2,2.05E2,2.07E2,1.72E2,2.2E1,1.44E2,1E0,2.73E2,1.67E2,4.1E1,1.14E2,1.4E2,1.7E1,1.88E2,1.66E2,4.1E1,7.5E1,9.7E1,1.66E2,1E0,1.13E2,1E0,4E0,1.36E2,5E0,1.2E1,8E0,1.8E2,9.2E1,7.4E1,2E0,3.9E1,4.6E1,2.9E1,5.3E1,4.4E1,1.06E2,7E0,1.34E2,2E0,1.71E2,9E0,4E0,8.8E1,6.4E1,1E1,1E0,3.8E1,3E1,1.6E1,1.5E1,1.4E1,1.5E1,3.8E1,2.3E1,2.1E1,1.02E2,4E0,1.33E2,1E0,1E0,1.7E2,8.2E1,6E0,2E0,6.2E1,9E0,1E0,2.5E1,1.3E1,1E0,2.9E1,1E0,1.5E1,1.1E1,4E0,1.1E1,3E0,1.1E1,4E0,3.1E1,7E0,1.8E1,5E0,5E0,1.6E1,3E0,1.3E2,1.12E2,5.8E1,5.5E1,2.7E1,5E0,5.7E1,1.2E1,1E0,3E0,2.6E1,2.9E1,2E0,2E0,1.6E1,1.2E1,4E0,2.5E1,1.05E2,1.04E2,8E0,5.6E1,2E0,5E1,5E0,2E0,2.5E1,5.6E1,1E0,2E1,6E0,2E0,2.7E1,1.5E1,1E0,9.8E1,7E0,5.4E1,2E0,4.8E1,2E0,1E0,5.5E1,2E0,1.8E1,2.1E1,6E0,1E0,1.4E1],"tree_param":{"num_deleted":"0","num_feature":"250","num_nodes":"147","size_leaf_vector":"0"}},{"base_weights":[2.0282242E0,3.0094526E0,1.0967426E0,3.7524433E0,2.6563094E0,1.5788959E0,5.617037E-1,4.8747935E0,3.6201801E0,2.9772706E0,2.3830662E0,1.878202E0,1.3717183E0,8.0433583E-1,2.7479422E-1,7.827606E-1,2.982618E0,2.0896506E0,2.4832263E0,1.8906859E0,8.187852E-1,1.4795843E0,1.1474048E0,9.6475893E-1,7.0032203E-1,4.0358305E-1,1.4062786E-1,8.369751E-1,2.987594E0,1.4899144E0,2.1559777E0,2.4880362E0,6.812706E-1,5.125103E-1,1.8952905E0,1.5478463E0,1.2851306E0,1.2339576E0,9.01903E-1,1.0440292E0,8.1262684E-1,7.9176587E-1,6.264586E-1,4.912814E-1,3.5772693E-1,1.274869E-1,1.9651446E-1,2.1687443E0,5.928583E-1,8.8975257E-1,1.5663134E0,1.3159771E0,7.134695E-1,1.2521987E0,4.152546E-1,3.46958E-1,9.3015975E-1,1.0574688E0,1.591475E-1,1.942656E-1,8.2510024E-1,1.1590439E0,7.3827595E-1,7.0584047E-1,5.097009E-1,3.5598636E-1,6.0432726E-1,3.8487548E-1,1.7712334E-1,1.1728892E-1,1.6937064E-1,2.6318675E-1,1.0800723E-1,6.270828E-1,2.1809387E0,1.5830579E0,8.310894E-1,1.3365399E0,5.414607E-1,4.35997E-1,1.270605E0,9.7155845E-1,4.4922745E-1,6.3931227E-1,1.106145E0,3.3174753E-1,8.455677E-1,3.267418E-1,7.554054E-1,5.205719E-1,7.668166E-1,3.536868E-2,5.215648E-1,3.9211473E-1,1.4054051E-1,2.1528475E-1,6.445273E-1,4.0057153E-1,2.3277956E-1,1.2724687E-1,7.875845E-2,6.3651466E-1,2.1932077E0,9.0431434E-1,1.6036315E0,3.420353E-1,1.2797695E0,1.1355337E0,5.0633323E-1,8.5823506E-1,2.2643924E-1,2.844801E-1,7.6829505E-1,1.6384053E-1,7.801238E-1,1.9063735E-1,5.350281E-1,1.4121056E-1,4.079737E-1,6.419706E-2,1.3237037E-1,8.2826644E-2,6.8336725E-3,4.2739582E-1,1.6098719E0,1.9771671E-1,7.7575225E-1,7.9278326E-1,1.8751073E-1,5.4299617E-1,1.3205779E-1,4.447216E-1,3.1589586E-1,1.02938056E-1,1.5253974E-1,1.6241493E0,7.8978825E-1,7.877809E-1,3.247099E-1,1.5237999E-1,5.502154E-1,1.11487985E-1,4.5144117E-1,1.1455259E-1,6.6841744E-2,7.4011624E-2,1.6702287E-1],"categories":[],"categories_nodes":[],"categories_segments":[],"categories_sizes":[],"default_left":[1,1,1,1,1,1,1,0,0,1,1,1,1,1,1,0,1,1,1,1,0,1,1,1,1,1,1,0,0,0,1,0,0,0,0,1,1,1,1,1,1,1,1,1,1,1,1,1,0,0,1,1,0,1,0,0,1,1,0,0,1,0,1,1,1,1,1,1,0,1,0,0,0,0,1,1,0,0,0,0,1,0,0,0,1,0,1,0,1,0,1,0,1,0,0,0,0,1,0,1,1,0,0,0,1,0,0,0,0,0,0,0,1,0,1,0,1,0,1,0,1,0,0,0,1,0,1,0,0,1,0,1,0,1,1,0,0,0,0,0,0,0,0,0,0,0,0],"id":20,"left_children":[1,3,5,7,9,11,13,-1,-1,15,17,19,21,23,25,-1,27,29,31,33,-1,35,37,39,41,43,45,-1,-1,-1,47,-1,-1,-1,-1,49,51,53,55,57,59,61,63,65,67,69,71,73,-1,-1,75,77,-1,79,-1,-1,81,83,-1,-1,85,-1,87,89,91,93,95,97,-1,99,-1,-1,-1,-1,101,103,-1,-1,-1,-1,105,-1,-1,-1,107,-1,109,-1,111,-1,113,-1,115,-1,-1,-1,-1,117,-1,119,121,-1,-1,-1,123,-1,-1,-1,-1,-1,-1,-1,125,-1,127,-1,129,-1,131,-1,133,-1,-1,-1,135,-1,137,-1,-1,139,-1,141,-1,143,145,-1,-1,-1,-1,-1,-1,-1,-1,-1,-1,-1,-1],"loss_changes":[1.6080742E3,2.1515674E2,2.3283472E2,2.3026611E1,4.4209473E1,2.6940186E1,2.9782364E1,0E0,0E0,7.751465E-1,4.244751E0,9.91272E-1,5.19812E0,3.2122345E0,3.381791E0,0E0,3.1811523E-1,2.8829956E-1,3.330078E-1,2.2802734E-1,0E0,5.1953125E-1,9.482269E-1,2.2489166E-1,4.8336792E-1,2.304287E-1,4.765296E-2,0E0,0E0,0E0,2.508545E-1,0E0,0E0,0E0,0E0,2.470398E-1,3.0952454E-2,5.104675E-1,1.3202095E-1,4.8578644E-1,1.0966873E-1,3.426895E-1,4.28051E-1,2.7429342E-1,2.750473E-1,1.5586495E-2,7.189053E-2,6.1157227E-2,0E0,0E0,2.8479004E-1,8.855438E-2,0E0,4.525833E-1,0E0,0E0,1.0111809E-1,3.9196014E-1,0E0,0E0,6.280708E-2,0E0,1.4794159E-1,1.4307213E-1,1.9539452E-1,7.721496E-2,1.1147499E-1,4.999447E-2,0E0,1.6836166E-2,0E0,0E0,0E0,0E0,2.5115967E-2,3.0929565E-1,0E0,0E0,0E0,0E0,1.1541748E-1,0E0,0E0,0E0,2.5354385E-1,0E0,5.662918E-2,0E0,1.03149414E-1,0E0,1.4499664E-1,0E0,6.2851906E-2,0E0,0E0,0E0,0E0,4.4140816E-2,0E0,8.946121E-3,4.4082627E-3,0E0,0E0,0E0,2.0007324E-1,0E0,0E0,0E0,0E0,0E0,0E0,0E0,6.361961E-2,0E0,9.89151E-2,0E0,4.0675163E-2,0E0,3.2081604E-2,0E0,1.3385773E-2,0E0,0E0,0E0,1.22283936E-1,0E0,1.5472412E-2,0E0,0E0,1.2036324E-2,0E0,2.5801659E-2,0E0,1.9856691E-3,1.834637E-2,0E0,0E0,0E0,0E0,0E0,0E0,0E0,0E0,0E0,0E0,0E0,0E0],"parents":[2147483647,0,0,1,1,2,2,3,3,4,4,5,5,6,6,9,9,10,10,11,11,12,12,13,13,14,14,16,16,17,17,18,18,19,19,21,21,22,22,23,23,24,24,25,25,26,26,30,30,35,35,36,36,37,37,38,38,39,39,40,40,41,41,42,42,43,43,44,44,45,45,46,46,47,47,50,50,51,51,53,53,56,56,57,57,60,60,62,62,63,63,64,64,65,65,66,66,67,67,69,69,74,74,75,75,80,80,84,84,86,86,88,88,90,90,92,92,97,97,99,99,100,100,104,104,112,112,114,114,116,116,118,118,120,120,124,124,126,126,129,129,131,131,133,133,134,134],"right_children":[2,4,6,8,10,12,14,-1,-1,16,18,20,22,24,26,-1,28,30,32,34,-1,36,38,40,42,44,46,-1,-1,-1,48,-1,-1,-1,-1,50,52,54,56,58,60,62,64,66,68,70,72,74,-1,-1,76,78,-1,80,-1,-1,82,84,-1,-1,86,-1,88,90,92,94,96,98,-1,100,-1,-1,-1,-1,102,104,-1,-1,-1,-1,106,-1,-1,-1,108,-1,110,-1,112,-1,114,-1,116,-1,-1,-1,-1,118,-1,120,122,-1,-1,-1,124,-1,-1,-1,-1,-1,-1,-1,126,-1,128,-1,130,-1,132,-1,134,-1,-1,-1,136,-1,138,-1,-1,140,-1,142,-1,144,146,-1,-1,-1,-1,-1,-1,-1,-1,-1,-1,-1,-1],"split_conditions":[-2.3174258E2,-7.635242E1,-2.6681774E1,-5.297409E2,-5.640061E2,-4.1257355E1,7.248041E1,4.8747936E-1,3.6201802E-1,1.3163339E2,1.5877277E2,1.1896096E2,-7.796147E1,-4.5196674E2,-9.810826E1,7.827606E-2,-7.1062546E1,-3.9403908E1,1.2483492E1,1.2535416E1,8.187852E-2,-3.907646E1,1.16310005E2,-3.829709E1,8.538638E1,1.7137907E2,2.1633972E1,8.369751E-2,2.987594E-1,1.4899145E-1,1.609003E2,2.4880362E-1,6.812706E-2,5.125103E-2,1.8952905E-1,1.1065035E1,1.3386353E2,6.8733716E0,-3.6536766E1,1.6134842E2,4.2746925E1,2.1194939E1,5.058799E1,1.0735664E2,8.791505E1,1.3133452E2,-2.5369542E2,-1.454967E0,5.928583E-2,8.897526E-2,1.0782387E2,-1.8086414E2,7.134695E-2,-6.189003E1,4.152546E-2,3.46958E-2,-2.393876E2,8.560672E1,1.5914751E-2,1.942656E-2,1.6667128E2,1.1590439E-1,1.9856731E1,4.447175E1,8.61079E1,1.1974214E2,-2.9359253E2,-1.881326E1,1.7712334E-2,-1.9220578E2,1.6937064E-2,2.6318675E-2,1.0800723E-2,6.270828E-2,-8.56272E1,6.3450912E1,8.310894E-2,1.3365398E-1,5.414607E-2,4.3599702E-2,-8.40506E1,9.715585E-2,4.4922747E-2,6.393123E-2,5.115751E1,3.3174753E-2,2.4721735E1,3.2674182E-2,8.160785E1,5.2057188E-2,-5.5522392E1,3.5368681E-3,2.1512112E1,3.9211474E-2,1.4054052E-2,2.1528475E-2,6.445273E-2,3.565604E1,2.3277957E-2,-7.807048E1,3.5564354E1,6.3651465E-2,2.1932077E-1,9.043144E-2,-1.1124363E1,3.420353E-2,1.2797695E-1,1.1355337E-1,5.0633322E-2,8.5823506E-2,2.2643924E-2,2.844801E-2,1.7112068E1,1.6384054E-2,4.6634773E1,1.9063735E-2,-3.5651268E1,1.4121056E-2,1.8915085E1,6.4197066E-3,7.438255E1,8.282664E-3,6.8336725E-4,4.273958E-2,-2.861676E2,1.977167E-2,4.0291977E1,7.927833E-2,1.8751074E-2,-1.6217714E1,1.3205779E-2,-1.4529316E1,3.1589586E-2,1.5246632E1,1.6416534E2,1.6241494E-1,7.897883E-2,7.877809E-2,3.247099E-2,1.5237999E-2,5.5021543E-2,1.1148798E-2,4.514412E-2,1.1455259E-2,6.6841743E-3,7.4011623E-3,1.6702287E-2],"split_indices":[87,100,106,94,92,108,97,0,0,205,128,84,86,91,95,0,145,142,101,10,0,106,244,39,233,81,6,0,0,0,126,0,0,0,0,21,79,111,153,240,117,20,103,79,97,243,88,50,0,0,246,211,0,151,0,0,212,123,0,0,200,0,63,17,102,244,213,165,0,94,0,0,0,0,36,197,0,0,0,0,36,0,0,0,18,0,112,0,126,0,193,0,20,0,0,0,0,18,0,148,184,0,0,0,2,0,0,0,0,0,0,0,21,0,19,0,193,0,105,0,126,0,0,0,216,0,63,0,0,2,0,96,0,63,81,0,0,0,0,0,0,0,0,0,0,0,0],"split_type":[0,0,0,0,0,0,0,0,0,0,0,0,0,0,0,0,0,0,0,0,0,0,0,0,0,0,0,0,0,0,0,0,0,0,0,0,0,0,0,0,0,0,0,0,0,0,0,0,0,0,0,0,0,0,0,0,0,0,0,0,0,0,0,0,0,0,0,0,0,0,0,0,0,0,0,0,0,0,0,0,0,0,0,0,0,0,0,0,0,0,0,0,0,0,0,0,0,0,0,0,0,0,0,0,0,0,0,0,0,0,0,0,0,0,0,0,0,0,0,0,0,0,0,0,0,0,0,0,0,0,0,0,0,0,0,0,0,0,0,0,0,0,0,0,0,0,0],"sum_hessian":[1.762E3,8.57E2,9.05E2,2.73E2,5.84E2,4.75E2,4.3E2,2.5E1,2.48E2,2.64E2,3.2E2,1.91E2,2.84E2,2.32E2,1.98E2,1E0,2.63E2,8.7E1,2.33E2,1.88E2,3E0,1.88E2,9.6E1,8.8E1,1.44E2,1E2,9.8E1,1E0,2.62E2,1.1E1,7.6E1,2.32E2,1E0,1E0,1.87E2,1.34E2,5.4E1,6.8E1,2.8E1,5.4E1,3.4E1,6E1,8.4E1,3.1E1,6.9E1,8.2E1,1.6E1,7.5E1,1E0,5E0,1.29E2,5E1,4E0,6.6E1,2E0,2E0,2.6E1,5.3E1,1E0,1E0,3.3E1,5E0,5.5E1,4.7E1,3.7E1,1.6E1,1.5E1,5.9E1,1E1,6.9E1,1.3E1,8E0,8E0,1E0,7.4E1,1.25E2,4E0,4.8E1,2E0,2E0,6.4E1,2.3E1,3E0,7E0,4.6E1,2E0,3.1E1,3E0,5.2E1,1.4E1,3.3E1,1E0,3.6E1,1.3E1,3E0,2E0,1.3E1,5.2E1,7E0,5.3E1,1.6E1,1E0,7.3E1,5E0,1.2E2,1E0,6.3E1,4.3E1,3E0,3E1,1E0,2E0,5E1,1E0,3.2E1,2E0,3.4E1,2E0,5E1,5E0,4.8E1,1.5E1,1E0,1E0,1.19E2,1E0,4.9E1,3.1E1,1E0,3.3E1,1E0,3.3E1,1.7E1,2.2E1,2.6E1,1.16E2,3E0,4.7E1,2E0,1E0,3.2E1,1E0,3.2E1,1.5E1,7E0,5E0,2.1E1],"tree_param":{"num_deleted":"0","num_feature":"250","num_nodes":"147","size_leaf_vector":"0"}},{"base_weights":[1.8283019E0,9.94894E-1,2.7182546E0,1.4275495E0,5.087342E-1,2.367074E0,3.3215396E0,1.6990762E0,1.2387466E0,7.2813255E-1,2.4929433E-1,2.574246E0,2.0748482E0,3.0653634E0,3.7949388E0,1.7464098E0,1.2890565E0,1.3342006E0,1.0370361E0,8.728348E-1,6.3429374E-1,3.6369964E-1,1.2524237E-1,2.708419E0,2.3797088E0,1.8847536E0,2.19697E0,4.548969E0,3.575456E0,1.760703E0,9.1687775E-1,1.3166691E0,3.2698488E-1,8.7727875E-1,1.3518783E0,1.1141458E0,8.178085E-1,9.4406325E-1,7.359662E-1,5.7945305E-1,7.432851E-1,4.4650474E-1,3.2184598E-1,1.14424706E-1,1.7285523E-1,2.4016685E0,1.0546198E0,2.204799E0,5.778723E-1,1.7797904E0,1.0674351E0,1.3555056E0,3.458624E-1,1.13005E0,3.875707E-1,3.238276E-1,8.4240603E-1,9.5594627E-1,1.5119004E-1,1.8455243E-1,7.4675626E-1,6.94954E-1,5.301467E-1,8.381457E-1,5.544306E-1,3.527282E-1,5.9346646E-1,3.48476E-1,1.7418095E-1,1.0480896E-1,1.536434E-1,2.3500304E-1,9.840659E-2,6.6380405E-1,2.4098053E0,4.868846E-1,1.7847968E0,1.3617053E0,5.316858E-1,4.9701393E-1,1.1519576E0,4.561492E-1,8.897486E-1,5.8337253E-1,9.990238E-1,3.0963102E-1,7.644006E-1,7.6481116E-1,4.3344176E-1,5.5580044E-1,3.3036125E-1,8.7189704E-1,4.176631E-1,2.8196293E-1,5.901266E-1,1.6907203E-1,3.841478E-1,1.4454341E-1,6.239044E-1,3.6243904E-1,2.1241131E-1,1.9243674E-1,8.499625E-2,1.1162509E-1,6.313023E-2,1.0387093E-1,2.7345955E-2,1.7965982E0,8.7244105E-1,1.3699893E0,6.5471244E-1,1.1761134E0,6.316975E-1,1.024561E0,4.6835816E-1,7.7518016E-1,2.1511722E-1,5.7629097E-1,3.3776915E-1,3.95334E-1,9.699094E-2,1.3179652E-1,3.6889958E-1,5.7732694E-2,1.167332E-1,6.4920187E-3,6.768897E-2,7.3230743E-1,1.8055487E0,1.179452E0,1.4260099E0,3.2493353E-1,1.1850328E0,1.0344225E0,3.0026007E-1,3.0297774E-1,5.909257E-1,3.360033E-2,3.7642178E-1,4.1448447E-1,3.0034637E-1,4.440847E-2,1.2025495E-1,5.0964975E-1,1.8106213E0,2.729516E-1,1.1935308E0,3.7747574E-1,1.4311326E0,1.234851E0,8.1743824E-1,4.1992545E-1,6.297847E-1,1.6093183E-1,4.2779884E-1,3.3871233E-2,1.2321019E-1],"categories":[],"categories_nodes":[],"categories_segments":[],"categories_sizes":[],"default_left":[1,1,1,1,1,1,1,1,1,1,1,1,1,0,1,1,1,1,1,1,1,1,1,0,1,0,1,0,0,1,0,0,0,0,1,1,1,1,1,1,1,1,1,1,1,1,0,0,0,1,0,1,0,1,0,0,1,1,0,0,1,1,1,1,1,1,1,1,1,1,0,0,1,0,0,0,1,1,0,0,1,0,0,0,1,0,1,0,0,1,0,0,0,0,0,0,1,0,0,1,0,0,0,1,1,0,0,1,0,1,0,1,0,1,0,0,0,1,1,0,0,0,1,0,1,0,0,0,1,1,1,0,1,0,0,0,1,0,0,1,0,0,1,0,0,0,0,0,0,0,0,0,0,0,0,0,0],"id":21,"left_children":[1,3,5,7,9,11,13,15,17,19,21,23,25,-1,27,29,31,33,35,37,39,41,43,-1,45,-1,47,-1,-1,49,-1,-1,-1,-1,51,53,55,57,59,61,63,65,67,69,71,73,-1,-1,-1,75,-1,77,-1,79,-1,-1,81,83,-1,-1,85,87,89,91,93,95,97,99,101,103,-1,-1,105,-1,-1,-1,107,109,-1,-1,111,-1,-1,-1,113,-1,115,-1,-1,117,-1,-1,-1,-1,-1,-1,119,-1,-1,121,-1,-1,-1,123,125,-1,-1,127,-1,129,-1,131,-1,133,-1,-1,-1,135,137,-1,-1,-1,139,-1,141,-1,-1,-1,143,145,147,-1,149,-1,-1,-1,151,-1,-1,153,-1,-1,155,-1,-1,-1,-1,-1,-1,-1,-1,-1,-1,-1,-1,-1,-1],"loss_changes":[1.3049014E3,1.9110352E2,1.7264404E2,2.2605042E1,2.4351295E1,2.7472168E1,2.6083252E1,1.5332642E0,4.1615906E0,2.610199E0,2.778698E0,1.7243652E0,1.1986084E0,0E0,1.1126709E0,4.249878E-1,2.0703125E-1,3.6483765E-1,7.285843E-1,1.7285919E-1,4.3598938E-1,2.132616E-1,3.0182004E-2,0E0,1.4246216E0,0E0,4.2437744E-1,0E0,0E0,3.2330322E-1,0E0,0E0,0E0,0E0,1.9894409E-1,3.5935974E-1,7.95784E-2,3.7366486E-1,7.042694E-2,2.067604E-1,3.4147263E-1,2.3167706E-1,2.2242928E-1,1.48204565E-2,5.090332E-2,2.810669E-1,0E0,0E0,0E0,1.7956543E-1,0E0,2.055664E-1,0E0,3.5664368E-1,0E0,0E0,8.787155E-2,2.838707E-1,0E0,0E0,2.5554657E-2,1.6174793E-1,2.0077705E-1,3.321266E-2,8.674145E-3,6.2000275E-2,6.0126066E-2,3.700638E-2,4.8093796E-3,1.2555063E-2,0E0,0E0,6.5424293E-4,0E0,0E0,0E0,1.6607666E-1,1.572876E-1,0E0,0E0,6.134796E-2,0E0,0E0,0E0,1.5707397E-1,0E0,2.271843E-2,0E0,0E0,9.5739365E-2,0E0,0E0,0E0,0E0,0E0,0E0,1.9475937E-2,0E0,0E0,3.03545E-2,0E0,0E0,0E0,9.227455E-3,2.6589483E-3,0E0,0E0,1.8286133E-1,0E0,2.0736694E-1,0E0,7.048035E-2,0E0,3.6773682E-3,0E0,0E0,0E0,5.295372E-2,8.140755E-2,0E0,0E0,0E0,3.488493E-2,0E0,7.90453E-3,0E0,0E0,0E0,1.0272217E-1,2.6130295E-1,1.6879272E-1,0E0,7.104492E-2,0E0,0E0,0E0,9.4364166E-2,0E0,0E0,2.5678635E-2,0E0,0E0,8.33571E-3,0E0,0E0,0E0,0E0,0E0,0E0,0E0,0E0,0E0,0E0,0E0,0E0,0E0,0E0],"parents":[2147483647,0,0,1,1,2,2,3,3,4,4,5,5,6,6,7,7,8,8,9,9,10,10,11,11,12,12,14,14,15,15,16,16,17,17,18,18,19,19,20,20,21,21,22,22,24,24,26,26,29,29,34,34,35,35,36,36,37,37,38,38,39,39,40,40,41,41,42,42,43,43,44,44,45,45,49,49,51,51,53,53,56,56,57,57,60,60,61,61,62,62,63,63,64,64,65,65,66,66,67,67,68,68,69,69,72,72,76,76,77,77,80,80,84,84,86,86,89,89,96,96,99,99,103,103,104,104,107,107,109,109,111,111,113,113,117,117,118,118,122,122,124,124,128,128,129,129,130,130,132,132,136,136,139,139,142,142],"right_children":[2,4,6,8,10,12,14,16,18,20,22,24,26,-1,28,30,32,34,36,38,40,42,44,-1,46,-1,48,-1,-1,50,-1,-1,-1,-1,52,54,56,58,60,62,64,66,68,70,72,74,-1,-1,-1,76,-1,78,-1,80,-1,-1,82,84,-1,-1,86,88,90,92,94,96,98,100,102,104,-1,-1,106,-1,-1,-1,108,110,-1,-1,112,-1,-1,-1,114,-1,116,-1,-1,118,-1,-1,-1,-1,-1,-1,120,-1,-1,122,-1,-1,-1,124,126,-1,-1,128,-1,130,-1,132,-1,134,-1,-1,-1,136,138,-1,-1,-1,140,-1,142,-1,-1,-1,144,146,148,-1,150,-1,-1,-1,152,-1,-1,154,-1,-1,156,-1,-1,-1,-1,-1,-1,-1,-1,-1,-1,-1,-1,-1,-1],"split_conditions":[9.971712E1,-2.6681774E1,1.9398853E2,-5.1580994E1,7.248041E1,-3.016128E2,1.9234125E2,1.0958271E2,-7.796147E1,-4.5196674E2,8.758098E0,-5.8993695E2,7.484496E1,3.0653635E-1,-1.5541113E2,1.2717287E2,1.6566341E1,1.6682743E1,1.16310005E2,-3.829709E1,2.003321E2,1.7137907E2,2.1633972E1,2.7084193E-1,-1.9827592E0,1.8847536E-1,1.5356064E2,4.548969E-1,3.5754558E-1,9.7454895E1,9.1687776E-2,1.3166691E-1,3.269849E-2,8.7727875E-2,7.2958145E1,6.8733716E0,-3.6536766E1,1.6134842E2,4.2746925E1,7.5422104E1,8.845152E1,4.1094963E1,8.791505E1,1.3133452E2,-2.5369542E2,-5.180637E2,1.0546198E-1,2.2047989E-1,5.778723E-2,1.2563236E1,1.06743515E-1,3.707409E1,3.458624E-2,-6.1549892E1,3.875707E-2,3.238276E-2,7.2742165E1,8.560672E1,1.5119004E-2,1.8455243E-2,1.6667128E2,1.4751253E2,-4.309532E2,-3.7595856E1,-3.601173E0,4.010058E1,-1.8200539E1,-1.881326E1,4.4477768E1,-3.595631E2,1.53643405E-2,2.3500305E-2,1.6367271E1,6.6380404E-2,2.4098054E-1,4.868846E-2,1.5484799E2,1.3455246E2,5.3168584E-2,4.9701393E-2,9.9811584E1,4.561492E-2,8.8974856E-2,